{"uuid": "4fd31354-55d7-4548-bec8-113cc45094f8", "model_parameters": [{"classes": [0, 1, 2], "feature": [2, 6, 2, 6, 9, 0, 0, 5, 2, 0, 7, 4, 0, 2, 2, 1, 1, 5, 1, 8, 2, 0, 9, 2, 2, 1, 9, 1, 2], "threshold": [42, 37, 14, 22, 145, 0, 0, 13, 0, 0, 49, 28, 0, 0, 15, 0, 0, 61, 25, 42, 0, 0, 148, 0, 0, 0, 219, 0, 0], "children_left": [1, 2, 3, 4, 5, 0, 0, 8, 0, 0, 11, 12, 0, 0, 15, 0, 0, 18, 19, 20, 0, 0, 23, 0, 0, 0, 27, 0, 0], "children_right": [26, 17, 10, 7, 6, 0, 0, 9, 0, 0, 14, 13, 0, 0, 16, 0, 0, 25, 22, 21, 0, 0, 24, 0, 0, 0, 28, 0, 0], "feature_importances": [0.0, 0.06679984662015816, 0.3553443977890907, 0.0, 0.02442524037065153, 0.1399012794090626, 0.2415757847066819, 0.09108871992497207, 0.026125884424181702, 0.054738846755201444, 0.0]}, {"classes": [0, 1, 2], "feature": [7, 6, 1, 8, 1, 0, 2, 5, 0, 0, 9, 5, 0, 0, 2, 2, 0, 5, 1, 6, 0, 2, 9, 0, 2, 4, 1, 0, 2, 10, 2, 0, 4, 7, 3, 8, 0, 2, 8, 0, 1, 1, 10, 8, 0, 1, 1], "threshold": [49, 37, 22, 4, 7, 0, 0, 23, 0, 0, 128, 23, 0, 0, 23, 0, 0, 23, 15, 67, 0, 0, 114, 0, 0, 51, 34, 0, 0, 125, 0, 0, 63, 63, 127, 43, 0, 0, 39, 0, 0, 0, 122, 87, 0, 0, 0], "children_left": [1, 2, 3, 4, 5, 0, 0, 8, 0, 0, 11, 12, 0, 0, 15, 0, 0, 18, 19, 20, 0, 0, 23, 0, 0, 26, 27, 0, 0, 30, 0, 0, 33, 34, 35, 36, 0, 0, 39, 0, 0, 0, 43, 44, 0, 0, 0], "children_right": [32, 17, 10, 7, 6, 0, 0, 9, 0, 0, 14, 13, 0, 0, 16, 0, 0, 25, 22, 21, 0, 0, 24, 0, 0, 29, 28, 0, 0, 31, 0, 0, 42, 41, 38, 37, 0, 0, 40, 0, 0, 0, 46, 45, 0, 0, 0], "feature_importances": [0.0, 0.16613349835032895, 0.021923765521637835, 0.008960378113900524, 0.02549501794178166, 0.08655250420883896, 0.14942749274246364, 0.4264319261700964, 0.041036019516423675, 0.04548222938223103, 0.0285571680522973]}, {"classes": [0, 1, 2], "feature": [5, 1, 8, 1, 9, 0, 2, 4, 0, 2, 9, 10, 1, 1, 5, 2, 0, 4, 3, 10, 2, 0, 0, 2, 0, 7, 4, 2, 2, 1, 2, 1, 10, 7, 6, 0, 2, 10, 1, 0, 8, 6, 1, 4, 0, 2, 1], "threshold": [51, 18, 41, 14, 244, 0, 0, 63, 0, 0, 122, 155, 0, 0, 13, 0, 0, 51, 127, 134, 0, 0, 3, 0, 0, 35, 63, 0, 0, 59, 0, 0, 89, 63, 37, 0, 0, 76, 0, 0, 48, 15, 0, 40, 0, 0, 0], "children_left": [1, 2, 3, 4, 5, 0, 0, 8, 0, 0, 11, 12, 0, 0, 15, 0, 0, 18, 19, 20, 0, 0, 23, 0, 0, 26, 27, 0, 0, 30, 0, 0, 33, 34, 35, 0, 0, 38, 0, 0, 41, 42, 0, 44, 0, 0, 0], "children_right": [32, 17, 10, 7, 6, 0, 0, 9, 0, 0, 14, 13, 0, 0, 16, 0, 0, 25, 22, 21, 0, 0, 24, 0, 0, 29, 28, 0, 0, 31, 0, 0, 40, 37, 36, 0, 0, 39, 0, 0, 46, 43, 0, 45, 0, 0, 0], "feature_importances": [0.03516702248116518, 0.22673941252394886, 0.0, 0.04632002483462149, 0.11530695218684567, 0.3516100012093673, 0.008941735334169608, 0.041742869234346495, 0.05169139833328481, 0.04652985140799132, 0.07595073245425932]}, {"classes": [0, 1, 2], "feature": [4, 4, 3, 8, 5, 2, 0, 8, 0, 1, 10, 5, 0, 1, 7, 0, 1, 1, 10, 1, 0, 0, 7, 0, 1, 8, 5, 2, 0, 9, 1, 0, 7, 8, 10, 8, 2, 2, 5, 2, 0, 9, 1, 2, 0, 2, 2, 7, 3, 2, 0, 8, 2, 1, 1], "threshold": [51, 28, 127, 5, 4, 0, 0, 52, 0, 0, 167, 51, 0, 0, 35, 0, 0, 19, 172, 14, 0, 0, 35, 0, 0, 55, 23, 0, 0, 141, 0, 0, 49, 52, 152, 34, 0, 0, 13, 0, 0, 111, 0, 14, 0, 0, 16, 63, 127, 0, 0, 59, 0, 0, 0], "children_left": [1, 2, 3, 4, 5, 0, 0, 8, 0, 0, 11, 12, 0, 0, 15, 0, 0, 18, 19, 20, 0, 0, 23, 0, 0, 26, 27, 0, 0, 30, 0, 0, 33, 34, 35, 36, 0, 0, 39, 0, 0, 42, 0, 44, 0, 0, 47, 48, 49, 0, 0, 52, 0, 0, 0], "children_right": [32, 17, 10, 7, 6, 0, 0, 9, 0, 0, 14, 13, 0, 0, 16, 0, 0, 25, 22, 21, 0, 0, 24, 0, 0, 29, 28, 0, 0, 31, 0, 0, 46, 41, 38, 37, 0, 0, 40, 0, 0, 43, 0, 45, 0, 0, 54, 51, 50, 0, 0, 53, 0, 0, 0], "feature_importances": [0.0, 0.07702643003225296, 0.017413561162034876, 0.0189634405876198, 0.30870248343309004, 0.09170727700454123, 0.0, 0.3107062215534122, 0.09016936979321376, 0.025679522922027374, 0.05963169351180783]}, {"classes": [0, 1, 2], "feature": [8, 9, 4, 3, 4, 0, 0, 9, 1, 0, 7, 2, 0, 2, 9, 1, 0, 4, 8, 9, 2, 0, 2, 8, 0, 10, 0, 2, 9, 9, 10, 2, 1, 10, 1, 6, 1, 0, 2, 0, 2], "threshold": [55, 160, 51, 127, 28, 0, 0, 125, 0, 0, 35, 5, 0, 0, 104, 0, 0, 40, 47, 163, 0, 0, 0, 21, 0, 38, 0, 0, 220, 137, 65, 0, 0, 136, 0, 37, 0, 0, 19, 0, 0], "children_left": [1, 2, 3, 4, 5, 0, 0, 8, 0, 0, 11, 12, 0, 0, 15, 0, 0, 18, 19, 20, 0, 0, 0, 24, 0, 26, 0, 0, 29, 30, 31, 0, 0, 34, 0, 36, 0, 0, 39, 0, 0], "children_right": [28, 17, 10, 7, 6, 0, 0, 9, 0, 0, 14, 13, 0, 0, 16, 0, 0, 23, 22, 21, 0, 0, 0, 25, 0, 27, 0, 0, 38, 33, 32, 0, 0, 35, 0, 37, 0, 0, 40, 0, 0], "feature_importances": [0.0, 0.0, 0.02443174997322736, 0.06866520857317009, 0.22179166374395784, 0.0, 0.0032580740955750072, 0.010025026970341917, 0.4206434643551023, 0.23477306166431686, 0.016411750624308667]}, {"classes": [0, 1, 2], "feature": [7, 4, 2, 6, 1, 0, 0, 10, 2, 0, 1, 3, 0, 0, 4, 0, 2, 7, 6, 1, 0, 2, 10, 2, 2, 9, 8, 0, 1, 10, 0, 2, 8, 0, 5, 10, 5, 0, 2, 10, 1, 1, 9, 1, 7, 0, 1], "threshold": [49, 51, 7, 37, 14, 0, 0, 120, 0, 0, 35, 127, 0, 0, 28, 0, 0, 35, 52, 18, 0, 0, 126, 0, 0, 111, 46, 0, 0, 75, 0, 0, 38, 0, 51, 123, 42, 0, 0, 163, 0, 0, 145, 0, 98, 0, 0], "children_left": [1, 2, 3, 4, 5, 0, 0, 8, 0, 0, 11, 12, 0, 0, 15, 0, 0, 18, 19, 20, 0, 0, 23, 0, 0, 26, 27, 0, 0, 30, 0, 0, 33, 0, 35, 36, 37, 0, 0, 40, 0, 0, 43, 0, 45, 0, 0], "children_right": [32, 17, 10, 7, 6, 0, 0, 9, 0, 0, 14, 13, 0, 0, 16, 0, 0, 25, 22, 21, 0, 0, 24, 0, 0, 29, 28, 0, 0, 31, 0, 0, 34, 0, 42, 39, 38, 0, 0, 41, 0, 0, 44, 0, 46, 0, 0], "feature_importances": [0.0, 0.09438892799658948, 0.07217625695258621, 0.018570260491450236, 0.24125626903314057, 0.023173139347835933, 0.02234785995846083, 0.4138516007854332, 0.04052373268176512, 0.02962032704191209, 0.04409162571082625]}, {"classes": [0, 1, 2], "feature": [8, 4, 8, 7, 4, 0, 0, 9, 1, 0, 1, 3, 0, 1, 2, 2, 0, 1, 6, 10, 0, 0, 7, 2, 2, 7, 6, 2, 2, 9, 1, 0, 7, 6, 8, 1, 2, 1, 0, 0, 2, 1, 9, 1, 1, 5, 2, 0, 1], "threshold": [55, 28, 33, 35, 17, 0, 0, 82, 0, 0, 29, 127, 0, 0, 21, 0, 0, 28, 67, 139, 0, 0, 21, 0, 0, 35, 37, 0, 0, 93, 0, 0, 49, 67, 56, 0, 8, 0, 0, 115, 0, 0, 142, 0, 31, 51, 0, 0, 0], "children_left": [1, 2, 3, 4, 5, 0, 0, 8, 0, 0, 11, 12, 0, 0, 15, 0, 0, 18, 19, 20, 0, 0, 23, 0, 0, 26, 27, 0, 0, 30, 0, 0, 33, 34, 35, 0, 37, 0, 0, 40, 0, 0, 43, 0, 45, 46, 0, 0, 0], "children_right": [32, 17, 10, 7, 6, 0, 0, 9, 0, 0, 14, 13, 0, 0, 16, 0, 0, 25, 22, 21, 0, 0, 24, 0, 0, 29, 28, 0, 0, 31, 0, 0, 42, 39, 36, 0, 38, 0, 0, 41, 0, 0, 44, 0, 48, 47, 0, 0, 0], "feature_importances": [0.00423588000129219, 0.12381327019542698, 0.009817963008709333, 0.02554202612475086, 0.1858540263445227, 0.0031063120009476057, 0.0639377468806707, 0.07033114001750032, 0.459793195561057, 0.026985439842595025, 0.026583000022527295]}, {"classes": [0, 1, 2], "feature": [2, 4, 1, 8, 9, 0, 2, 3, 0, 1, 2, 10, 2, 2, 10, 0, 1, 7, 6, 2, 0, 2, 8, 2, 2, 8, 0, 1, 10, 6, 8, 0, 9, 0, 2, 9, 2, 1, 1], "threshold": [40, 40, 37, 35, 244, 0, 0, 127, 0, 0, 29, 132, 0, 0, 153, 0, 0, 63, 67, 7, 0, 0, 34, 0, 0, 38, 0, 0, 128, 37, 38, 0, 190, 0, 0, 153, 0, 0, 0], "children_left": [1, 2, 3, 4, 5, 0, 0, 8, 0, 0, 11, 12, 0, 0, 15, 0, 0, 18, 19, 20, 0, 0, 23, 0, 0, 26, 0, 0, 29, 30, 31, 0, 33, 0, 0, 36, 0, 0, 0], "children_right": [28, 17, 10, 7, 6, 0, 0, 9, 0, 0, 14, 13, 0, 0, 16, 0, 0, 25, 22, 21, 0, 0, 24, 0, 0, 27, 0, 0, 38, 35, 32, 0, 34, 0, 0, 37, 0, 0, 0], "feature_importances": [0.0, 0.0891684483912051, 0.3180596952738008, 0.02044470848301915, 0.2714899067133104, 0.0, 0.037005518613919194, 0.13918028245675665, 0.05801072460734935, 0.03462833767806226, 0.03201237778257718]}, {"classes": [0, 1, 2], "feature": [5, 4, 7, 4, 9, 0, 2, 5, 2, 0, 8, 0, 0, 0, 1, 1, 0, 6, 1, 9, 0, 2, 7, 2, 0, 7, 2, 2, 2, 1, 2, 6, 1, 8, 0, 1, 1, 1, 8, 2, 1, 0, 10, 2, 1], "threshold": [51, 40, 35, 28, 233, 0, 0, 13, 0, 0, 34, 5, 0, 0, 22, 0, 0, 67, 35, 141, 0, 0, 35, 0, 0, 49, 5, 0, 0, 0, 13, 22, 0, 82, 0, 0, 26, 24, 50, 0, 0, 0, 97, 0, 0], "children_left": [1, 2, 3, 4, 5, 0, 0, 8, 0, 0, 11, 12, 0, 0, 15, 0, 0, 18, 19, 20, 0, 0, 23, 0, 0, 26, 27, 0, 0, 0, 31, 32, 0, 34, 0, 0, 37, 38, 39, 0, 0, 0, 43, 0, 0], "children_right": [30, 17, 10, 7, 6, 0, 0, 9, 0, 0, 14, 13, 0, 0, 16, 0, 0, 25, 22, 21, 0, 0, 24, 0, 0, 29, 28, 0, 0, 0, 36, 33, 0, 35, 0, 0, 42, 41, 40, 0, 0, 0, 44, 0, 0], "feature_importances": [0.004238771196478327, 0.07445191039610054, 0.016131617831898072, 0.0, 0.2746647280602553, 0.4047114474939629, 0.04885184332132602, 0.08446406450481453, 0.03017406373922444, 0.05338495003072768, 0.008926603425212213]}, {"classes": [0, 1, 2], "feature": [4, 3, 1, 9, 5, 0, 0, 0, 2, 0, 7, 4, 0, 2, 7, 0, 1, 10, 10, 7, 2, 0, 2, 0, 1, 5, 9, 1, 0, 1, 7, 7, 10, 1, 2, 2, 8, 0, 2, 8, 9, 0, 0, 2, 2, 1, 1], "threshold": [51, 127, 19, 171, 13, 0, 0, 6, 0, 0, 35, 28, 0, 0, 63, 0, 0, 151, 99, 35, 0, 0, 40, 0, 0, 51, 77, 0, 0, 0, 63, 35, 136, 25, 0, 0, 38, 0, 0, 49, 125, 0, 0, 17, 0, 0, 0], "children_left": [1, 2, 3, 4, 5, 0, 0, 8, 0, 0, 11, 12, 0, 0, 15, 0, 0, 18, 19, 20, 0, 0, 23, 0, 0, 26, 27, 0, 0, 0, 31, 32, 33, 34, 0, 0, 37, 0, 0, 40, 41, 0, 0, 44, 0, 0, 0], "children_right": [30, 17, 10, 7, 6, 0, 0, 9, 0, 0, 14, 13, 0, 0, 16, 0, 0, 25, 22, 21, 0, 0, 24, 0, 0, 29, 28, 0, 0, 0, 46, 39, 36, 35, 0, 0, 38, 0, 0, 43, 42, 0, 0, 45, 0, 0, 0], "feature_importances": [0.004506411816026225, 0.09207672491043835, 0.01909741511330826, 0.04241219711354447, 0.2517677416716617, 0.02425153391093104, 0.0, 0.39782604220914153, 0.04167729278818621, 0.040270496710092245, 0.08611414375667023]}, {"classes": [0, 1, 2], "feature": [8, 10, 4, 6, 3, 2, 0, 3, 2, 0, 9, 7, 2, 1, 0, 2, 2, 1, 8, 1, 0, 0, 6, 1, 0, 4, 5, 0, 1, 8, 2, 2, 10, 5, 4, 0, 2, 2, 2, 2, 5, 1, 2, 1, 0, 1, 9, 8, 1, 1, 2, 0, 1], "threshold": [54, 122, 51, 37, 127, 0, 0, 127, 0, 0, 128, 35, 0, 0, 39, 0, 0, 27, 38, 14, 0, 0, 37, 0, 0, 28, 46, 0, 0, 39, 0, 0, 81, 37, 40, 0, 0, 0, 11, 10, 32, 0, 0, 33, 0, 0, 144, 58, 0, 0, 26, 0, 0], "children_left": [1, 2, 3, 4, 5, 0, 0, 8, 0, 0, 11, 12, 0, 0, 15, 0, 0, 18, 19, 20, 0, 0, 23, 0, 0, 26, 27, 0, 0, 30, 0, 0, 33, 34, 35, 0, 0, 0, 39, 40, 41, 0, 0, 44, 0, 0, 47, 48, 0, 0, 51, 0, 0], "children_right": [32, 17, 10, 7, 6, 0, 0, 9, 0, 0, 14, 13, 0, 0, 16, 0, 0, 25, 22, 21, 0, 0, 24, 0, 0, 29, 28, 0, 0, 31, 0, 0, 38, 37, 36, 0, 0, 0, 46, 43, 42, 0, 0, 45, 0, 0, 50, 49, 0, 0, 52, 0, 0], "feature_importances": [0.001166489996936305, 0.11893954593101036, 0.028980532810207, 0.04404701360671869, 0.14034723956299966, 0.025985475915588287, 0.05731664911112243, 0.007657986648399096, 0.4359003991346545, 0.005448145561784566, 0.13421052172057915]}, {"classes": [0, 1, 2], "feature": [7, 3, 9, 1, 10, 0, 0, 5, 2, 0, 1, 4, 0, 2, 9, 2, 2, 9, 9, 5, 0, 1, 10, 0, 2, 6, 8, 2, 0, 2, 0, 2, 4, 7, 9, 0, 1, 1, 4, 1, 0, 9, 1, 0, 0, 1, 2, 2, 1], "threshold": [49, 127, 135, 18, 155, 0, 0, 23, 0, 0, 25, 40, 0, 0, 192, 0, 0, 160, 118, 23, 0, 0, 167, 0, 0, 52, 17, 0, 0, 14, 0, 0, 63, 63, 131, 29, 0, 0, 40, 0, 0, 121, 0, 4, 0, 0, 10, 0, 0], "children_left": [1, 2, 3, 4, 5, 0, 0, 8, 0, 0, 11, 12, 0, 0, 15, 0, 0, 18, 19, 20, 0, 0, 23, 0, 0, 26, 27, 0, 0, 30, 0, 0, 33, 34, 35, 36, 0, 0, 39, 0, 0, 42, 0, 44, 0, 0, 47, 0, 0], "children_right": [32, 17, 10, 7, 6, 0, 0, 9, 0, 0, 14, 13, 0, 0, 16, 0, 0, 25, 22, 21, 0, 0, 24, 0, 0, 29, 28, 0, 0, 31, 0, 0, 46, 41, 38, 37, 0, 0, 40, 0, 0, 43, 0, 45, 0, 0, 48, 0, 0], "feature_importances": [0.01648945393161856, 0.09001094084971258, 0.015365954020314938, 0.07273948179458256, 0.05124363047348995, 0.057321453861644306, 0.019617189318602072, 0.4224392403035775, 0.007850545924870847, 0.23260897391634391, 0.014313135605242798]}, {"classes": [0, 1, 2], "feature": [5, 4, 1, 7, 8, 0, 0, 8, 0, 1, 7, 3, 2, 0, 6, 0, 2, 1, 2, 6, 0, 2, 0, 2, 0, 7, 4, 2, 2, 9, 1, 2, 8, 6, 1, 6, 0, 2, 2, 10, 2, 7, 0, 1, 1], "threshold": [51, 51, 18, 35, 7, 0, 0, 34, 0, 0, 21, 127, 0, 0, 52, 0, 0, 25, 5, 67, 0, 0, 1, 0, 0, 35, 63, 0, 0, 104, 0, 0, 53, 22, 0, 52, 0, 0, 16, 101, 0, 63, 0, 0, 0], "children_left": [1, 2, 3, 4, 5, 0, 0, 8, 0, 0, 11, 12, 0, 0, 15, 0, 0, 18, 19, 20, 0, 0, 23, 0, 0, 26, 27, 0, 0, 30, 0, 0, 33, 34, 0, 36, 0, 0, 39, 40, 0, 42, 0, 0, 0], "children_right": [32, 17, 10, 7, 6, 0, 0, 9, 0, 0, 14, 13, 0, 0, 16, 0, 0, 25, 22, 21, 0, 0, 24, 0, 0, 29, 28, 0, 0, 31, 0, 0, 38, 35, 0, 37, 0, 0, 44, 41, 0, 43, 0, 0, 0], "feature_importances": [0.012287710763726211, 0.13808848314774735, 0.009362910851529628, 0.04287268337316536, 0.15423625576156555, 0.4266520616585965, 0.05654327418613265, 0.09205613470997441, 0.05270040697699344, 0.01161821310324633, 0.003581865467322462]}, {"classes": [0, 1, 2], "feature": [8, 1, 0, 4, 8, 0, 1, 10, 2, 2, 8, 2, 0, 2, 1, 0, 0, 10, 9, 4, 0, 2, 6, 2, 2, 4, 7, 0, 1, 6, 0, 2, 0, 7, 10, 1, 1, 2, 0, 9, 1, 2, 0, 2, 9, 4, 9, 0, 1, 1, 7, 0, 1], "threshold": [54, 18, 2, 51, 36, 0, 0, 147, 0, 0, 6, 1, 0, 0, 14, 0, 0, 128, 128, 28, 0, 0, 37, 0, 0, 40, 35, 0, 0, 37, 0, 0, 1, 35, 119, 17, 0, 0, 0, 137, 0, 8, 0, 0, 145, 40, 51, 0, 0, 0, 70, 0, 0], "children_left": [1, 2, 3, 4, 5, 0, 0, 8, 0, 0, 11, 12, 0, 0, 15, 0, 0, 18, 19, 20, 0, 0, 23, 0, 0, 26, 27, 0, 0, 30, 0, 0, 33, 34, 35, 36, 0, 0, 0, 40, 0, 42, 0, 0, 45, 46, 47, 0, 0, 0, 51, 0, 0], "children_right": [32, 17, 10, 7, 6, 0, 0, 9, 0, 0, 14, 13, 0, 0, 16, 0, 0, 25, 22, 21, 0, 0, 24, 0, 0, 29, 28, 0, 0, 31, 0, 0, 44, 39, 38, 37, 0, 0, 0, 41, 0, 43, 0, 0, 50, 49, 48, 0, 0, 0, 52, 0, 0], "feature_importances": [0.05494650731313035, 0.19870401192910006, 0.016067302832790738, 0.0, 0.11262756255937567, 0.0, 0.03044160053834225, 0.06810550345628895, 0.407039858581795, 0.03944815263850761, 0.07261950015066941]}, {"classes": [0, 1, 2], "feature": [8, 1, 6, 3, 1, 0, 0, 5, 0, 0, 10, 0, 2, 0, 9, 0, 2, 7, 2, 1, 0, 2, 9, 2, 2, 10, 2, 0, 2, 10, 0, 1, 5, 2, 9, 1, 4, 0, 2, 6, 0, 9, 1, 2, 8, 9, 1, 0, 1], "threshold": [55, 30, 37, 127, 13, 0, 0, 23, 0, 0, 112, 122, 0, 0, 114, 0, 0, 35, 7, 37, 0, 0, 154, 0, 0, 149, 11, 0, 0, 183, 0, 0, 51, 19, 132, 0, 51, 0, 0, 52, 0, 101, 0, 0, 62, 139, 0, 0, 0], "children_left": [1, 2, 3, 4, 5, 0, 0, 8, 0, 0, 11, 12, 0, 0, 15, 0, 0, 18, 19, 20, 0, 0, 23, 0, 0, 26, 27, 0, 0, 30, 0, 0, 33, 34, 35, 0, 37, 0, 0, 40, 0, 42, 0, 0, 45, 46, 0, 0, 0], "children_right": [32, 17, 10, 7, 6, 0, 0, 9, 0, 0, 14, 13, 0, 0, 16, 0, 0, 25, 22, 21, 0, 0, 24, 0, 0, 29, 28, 0, 0, 31, 0, 0, 44, 39, 36, 0, 38, 0, 0, 41, 0, 43, 0, 0, 48, 47, 0, 0, 0], "feature_importances": [0.006460275624017807, 0.21226699976261199, 0.039298469490667017, 0.032277996185458936, 0.003720591389995557, 0.06462387366317264, 0.1372760339729107, 0.029870904926849143, 0.35315183649977755, 0.06051325817071506, 0.06053976031382356]}, {"classes": [0, 1, 2], "feature": [6, 1, 10, 6, 0, 0, 0, 7, 0, 1, 10, 8, 0, 1, 9, 1, 2, 7, 3, 10, 2, 2, 5, 2, 0, 0, 10, 0, 1, 3, 1, 1, 5, 7, 10, 1, 2, 2, 1, 0, 2, 9, 3, 2, 1, 0, 2, 0, 10, 2, 2, 10, 0, 1, 1], "threshold": [37, 29, 151, 22, 3, 0, 0, 49, 0, 0, 222, 36, 0, 0, 38, 0, 0, 35, 127, 132, 0, 0, 23, 0, 0, 38, 181, 0, 0, 127, 0, 0, 51, 35, 133, 25, 0, 0, 17, 0, 0, 114, 127, 0, 0, 2, 0, 0, 97, 0, 26, 135, 0, 0, 0], "children_left": [1, 2, 3, 4, 5, 0, 0, 8, 0, 0, 11, 12, 0, 0, 15, 0, 0, 18, 19, 20, 0, 0, 23, 0, 0, 26, 27, 0, 0, 30, 0, 0, 33, 34, 35, 36, 0, 0, 39, 0, 0, 42, 43, 0, 0, 46, 0, 0, 49, 0, 51, 52, 0, 0, 0], "children_right": [32, 17, 10, 7, 6, 0, 0, 9, 0, 0, 14, 13, 0, 0, 16, 0, 0, 25, 22, 21, 0, 0, 24, 0, 0, 29, 28, 0, 0, 31, 0, 0, 48, 41, 38, 37, 0, 0, 40, 0, 0, 45, 44, 0, 0, 47, 0, 0, 50, 0, 54, 53, 0, 0, 0], "feature_importances": [0.04316281020730823, 0.1356395812459215, 0.001102909814017756, 0.027834866195006486, 0.0, 0.34010551414016443, 0.18668515332131752, 0.10525139584583798, 0.01615536639625428, 0.03871750585296358, 0.10534489698120847]}, {"classes": [0, 1, 2], "feature": [2, 4, 8, 6, 8, 0, 0, 2, 0, 2, 7, 10, 1, 0, 1, 10, 9, 3, 0, 1, 7, 2, 2, 2, 9, 1, 0, 8, 2, 1, 8, 5, 0, 7, 1, 2, 1], "threshold": [42, 51, 55, 37, 34, 0, 0, 7, 0, 0, 49, 186, 0, 0, 0, 140, 118, 127, 0, 0, 35, 0, 0, 22, 104, 0, 0, 51, 0, 0, 51, 14, 0, 21, 0, 0, 0], "children_left": [1, 2, 3, 4, 5, 0, 0, 8, 0, 0, 11, 12, 0, 0, 0, 16, 17, 18, 0, 0, 21, 0, 0, 24, 25, 0, 0, 28, 0, 0, 31, 32, 0, 34, 0, 0, 0], "children_right": [30, 15, 10, 7, 6, 0, 0, 9, 0, 0, 14, 13, 0, 0, 0, 23, 20, 19, 0, 0, 22, 0, 0, 27, 26, 0, 0, 29, 0, 0, 36, 33, 0, 35, 0, 0, 0], "feature_importances": [0.0, 0.0, 0.35561466458894303, 0.006718985161908843, 0.2377561610134277, 0.00748686918041271, 0.05212638636618712, 0.021350261123707383, 0.21094254641743088, 0.02357820824143044, 0.08442591790655185]}, {"classes": [0, 1, 2], "feature": [8, 2, 1, 10, 9, 0, 2, 2, 2, 0, 10, 9, 0, 2, 0, 0, 1, 9, 6, 3, 0, 0, 5, 2, 0, 1, 5, 2, 2, 9, 0, 2, 1, 9, 1, 0, 6, 1, 2, 0, 5, 10, 2, 0, 5, 9, 1, 2, 2, 1, 1], "threshold": [55, 7, 14, 81, 198, 0, 0, 0, 0, 0, 133, 124, 0, 0, 173, 0, 0, 171, 37, 127, 0, 0, 42, 0, 0, 29, 13, 0, 0, 173, 0, 0, 25, 132, 0, 0, 52, 0, 0, 0, 37, 108, 0, 0, 51, 147, 0, 0, 16, 0, 0], "children_left": [1, 2, 3, 4, 5, 0, 0, 8, 0, 0, 11, 12, 0, 0, 15, 0, 0, 18, 19, 20, 0, 0, 23, 0, 0, 26, 27, 0, 0, 30, 0, 0, 33, 34, 0, 36, 37, 0, 0, 0, 41, 42, 0, 0, 45, 46, 0, 0, 49, 0, 0], "children_right": [32, 17, 10, 7, 6, 0, 0, 9, 0, 0, 14, 13, 0, 0, 16, 0, 0, 25, 22, 21, 0, 0, 24, 0, 0, 29, 28, 0, 0, 31, 0, 0, 40, 35, 0, 39, 38, 0, 0, 0, 44, 43, 0, 0, 48, 47, 0, 0, 50, 0, 0], "feature_importances": [0.02721211413107753, 0.05542169720185155, 0.12021268092294214, 0.037949830364826444, 0.0, 0.07025191344193932, 0.12098429787352229, 0.0, 0.37043465444729096, 0.14014618907493032, 0.05738662254161949]}, {"classes": [0, 1, 2], "feature": [7, 6, 3, 10, 2, 0, 2, 9, 0, 0, 2, 8, 0, 0, 9, 0, 2, 9, 8, 3, 2, 1, 7, 2, 1, 1, 6, 0, 2, 5, 2, 0, 10, 4, 0, 9, 1, 2, 1, 8, 0, 8, 1, 1, 8, 0, 1], "threshold": [49, 37, 127, 122, 4, 0, 0, 132, 0, 0, 4, 6, 0, 0, 205, 0, 0, 124, 52, 127, 0, 0, 35, 0, 0, 32, 52, 0, 0, 42, 0, 0, 96, 45, 0, 142, 0, 0, 32, 38, 0, 52, 0, 0, 33, 0, 0], "children_left": [1, 2, 3, 4, 5, 0, 0, 8, 0, 0, 11, 12, 0, 0, 15, 0, 0, 18, 19, 20, 0, 0, 23, 0, 0, 26, 27, 0, 0, 30, 0, 0, 33, 34, 0, 36, 0, 0, 39, 40, 0, 42, 0, 0, 45, 0, 0], "children_right": [32, 17, 10, 7, 6, 0, 0, 9, 0, 0, 14, 13, 0, 0, 16, 0, 0, 25, 22, 21, 0, 0, 24, 0, 0, 29, 28, 0, 0, 31, 0, 0, 38, 35, 0, 37, 0, 0, 44, 41, 0, 43, 0, 0, 46, 0, 0], "feature_importances": [0.0, 0.048349431102790844, 0.01721595264850677, 0.04900408428363367, 0.014265339510590419, 0.015538352960166205, 0.19783872485908685, 0.42279590846799847, 0.06453822810181735, 0.10099453974549603, 0.06945943831991352]}, {"classes": [0, 1, 2], "feature": [8, 4, 4, 5, 6, 0, 0, 3, 0, 1, 5, 0, 2, 0, 8, 0, 1, 9, 3, 2, 0, 2, 1, 0, 1, 6, 10, 0, 2, 1, 2, 2, 5, 9, 7, 2, 10, 1, 1, 2, 0, 3, 2, 1, 9, 1, 2, 0, 1], "threshold": [55, 40, 28, 23, 7, 0, 0, 127, 0, 0, 23, 49, 0, 0, 40, 0, 0, 148, 127, 5, 0, 0, 41, 0, 0, 37, 142, 0, 0, 24, 0, 0, 51, 140, 35, 0, 201, 0, 0, 7, 0, 127, 0, 0, 145, 0, 21, 0, 0], "children_left": [1, 2, 3, 4, 5, 0, 0, 8, 0, 0, 11, 12, 0, 0, 15, 0, 0, 18, 19, 20, 0, 0, 23, 0, 0, 26, 27, 0, 0, 30, 0, 0, 33, 34, 35, 0, 37, 0, 0, 40, 0, 42, 0, 0, 45, 0, 47, 0, 0], "children_right": [32, 17, 10, 7, 6, 0, 0, 9, 0, 0, 14, 13, 0, 0, 16, 0, 0, 25, 22, 21, 0, 0, 24, 0, 0, 29, 28, 0, 0, 31, 0, 0, 44, 39, 36, 0, 38, 0, 0, 41, 0, 43, 0, 0, 46, 0, 48, 0, 0], "feature_importances": [0.010118150033442623, 0.0288667119662579, 0.028648560611277456, 0.06393266253078944, 0.2337194337208174, 0.1054636000760682, 0.031405480692414965, 0.004158183295169034, 0.43214013388584993, 0.054886497693489134, 0.006660585494423914]}, {"classes": [0, 1, 2], "feature": [7, 4, 4, 0, 9, 0, 0, 8, 0, 0, 3, 1, 0, 2, 10, 0, 1, 2, 1, 10, 0, 1, 5, 2, 0, 6, 1, 0, 2, 5, 2, 1, 8, 6, 5, 6, 1, 0, 1, 1, 1, 0, 1, 9, 0, 2, 5, 8, 5, 1, 2, 1, 1], "threshold": [49, 40, 28, 0, 57, 0, 0, 7, 0, 0, 127, 18, 0, 0, 185, 0, 0, 15, 33, 251, 0, 0, 42, 0, 0, 37, 26, 0, 0, 51, 0, 0, 52, 22, 42, 7, 0, 0, 0, 23, 11, 0, 0, 149, 0, 0, 51, 56, 37, 0, 0, 0, 0], "children_left": [1, 2, 3, 4, 5, 0, 0, 8, 0, 0, 11, 12, 0, 0, 15, 0, 0, 18, 19, 20, 0, 0, 23, 0, 0, 26, 27, 0, 0, 30, 0, 0, 33, 34, 35, 36, 0, 0, 0, 40, 41, 0, 0, 44, 0, 0, 47, 48, 49, 0, 0, 0, 0], "children_right": [32, 17, 10, 7, 6, 0, 0, 9, 0, 0, 14, 13, 0, 0, 16, 0, 0, 25, 22, 21, 0, 0, 24, 0, 0, 29, 28, 0, 0, 31, 0, 0, 46, 39, 38, 37, 0, 0, 0, 43, 42, 0, 0, 45, 0, 0, 52, 51, 50, 0, 0, 0, 0], "feature_importances": [0.01105415435440772, 0.09103294387061799, 0.041057010801690885, 0.014394290753207743, 0.2862054429179256, 0.014622999080545904, 0.024587565349062014, 0.4359543710409112, 0.03567613401665289, 0.011196709088802891, 0.034218378726175246]}, {"classes": [0, 1, 2], "feature": [7, 1, 2, 0, 6, 0, 2, 8, 0, 0, 10, 10, 2, 0, 1, 9, 3, 10, 2, 2, 1, 0, 2, 10, 1, 2, 2, 10, 2, 2, 8, 0, 9, 8, 0, 1, 10, 0, 2, 1, 9, 10, 4, 1, 2, 9, 1, 1, 1, 1, 0], "threshold": [49, 30, 16, 2, 52, 0, 0, 7, 0, 0, 197, 136, 0, 0, 0, 154, 127, 132, 0, 0, 53, 0, 0, 96, 31, 0, 0, 112, 0, 0, 52, 28, 150, 39, 0, 0, 80, 0, 0, 0, 204, 88, 63, 0, 0, 145, 0, 0, 41, 0, 0], "children_left": [1, 2, 3, 4, 5, 0, 0, 8, 0, 0, 11, 12, 0, 0, 0, 16, 17, 18, 0, 0, 21, 0, 0, 24, 25, 0, 0, 28, 0, 0, 31, 32, 33, 34, 0, 0, 37, 0, 0, 0, 41, 42, 43, 0, 0, 46, 0, 0, 49, 0, 0], "children_right": [30, 15, 10, 7, 6, 0, 0, 9, 0, 0, 14, 13, 0, 0, 0, 23, 20, 19, 0, 0, 22, 0, 0, 27, 26, 0, 0, 29, 0, 0, 40, 39, 36, 35, 0, 0, 38, 0, 0, 0, 48, 45, 44, 0, 0, 47, 0, 0, 50, 0, 0], "feature_importances": [0.03308812202543118, 0.21090696550988303, 0.049565785418410294, 0.044237717299651695, 0.0030846160471735278, 0.0, 0.030717153801428337, 0.4382408165385519, 0.054918080723403144, 0.04520492772649808, 0.09003581490956873]}, {"classes": [0, 1, 2], "feature": [8, 6, 10, 1, 2, 0, 0, 1, 0, 2, 1, 7, 0, 1, 6, 0, 2, 1, 2, 6, 0, 2, 9, 2, 2, 5, 10, 2, 2, 10, 0, 1, 9, 3, 10, 2, 1, 1, 5, 4, 0, 6, 0, 2, 7, 5, 0, 1, 1], "threshold": [55, 37, 140, 14, 2, 0, 0, 33, 0, 0, 40, 35, 0, 0, 7, 0, 0, 28, 15, 67, 0, 0, 136, 0, 0, 42, 138, 0, 0, 152, 0, 0, 139, 127, 87, 0, 0, 0, 51, 51, 0, 52, 0, 0, 63, 65, 0, 0, 0], "children_left": [1, 2, 3, 4, 5, 0, 0, 8, 0, 0, 11, 12, 0, 0, 15, 0, 0, 18, 19, 20, 0, 0, 23, 0, 0, 26, 27, 0, 0, 30, 0, 0, 33, 34, 35, 0, 0, 0, 39, 40, 0, 42, 0, 0, 45, 46, 0, 0, 0], "children_right": [32, 17, 10, 7, 6, 0, 0, 9, 0, 0, 14, 13, 0, 0, 16, 0, 0, 25, 22, 21, 0, 0, 24, 0, 0, 29, 28, 0, 0, 31, 0, 0, 38, 37, 36, 0, 0, 0, 44, 41, 0, 43, 0, 0, 48, 47, 0, 0, 0], "feature_importances": [0.0, 0.1337571608357994, 0.04049750352951747, 0.0011380934200023235, 0.00682084664386169, 0.050035359097310446, 0.20554131177342, 0.0664323740022104, 0.3777573885717223, 0.0374885132202538, 0.08053144890590219]}, {"classes": [0, 1, 2], "feature": [7, 6, 7, 2, 4, 0, 0, 9, 0, 2, 0, 6, 1, 0, 10, 0, 0, 7, 1, 6, 0, 2, 10, 2, 2, 10, 0, 10, 2, 0, 5, 10, 6, 8, 0, 1, 2, 8, 0, 9, 1, 2, 2, 8, 0, 1, 1, 6, 1, 1, 1], "threshold": [49, 37, 21, 10, 28, 0, 0, 160, 0, 0, 3, 22, 0, 0, 132, 0, 0, 35, 25, 67, 0, 0, 132, 0, 0, 74, 0, 129, 0, 0, 51, 156, 82, 55, 0, 0, 0, 33, 0, 155, 0, 0, 13, 80, 0, 0, 30, 52, 0, 0, 0], "children_left": [1, 2, 3, 4, 5, 0, 0, 8, 0, 0, 11, 12, 0, 0, 15, 0, 0, 18, 19, 20, 0, 0, 23, 0, 0, 26, 0, 28, 0, 0, 31, 32, 33, 34, 0, 0, 0, 38, 0, 40, 0, 0, 43, 44, 0, 0, 47, 48, 0, 0, 0], "children_right": [30, 17, 10, 7, 6, 0, 0, 9, 0, 0, 14, 13, 0, 0, 16, 0, 0, 25, 22, 21, 0, 0, 24, 0, 0, 27, 0, 29, 0, 0, 42, 37, 36, 35, 0, 0, 0, 39, 0, 41, 0, 0, 46, 45, 0, 0, 50, 49, 0, 0, 0], "feature_importances": [0.022156827433901956, 0.051423742848593905, 0.04058880369088465, 0.0, 0.024481397935462227, 0.02964648640327273, 0.2155839129912838, 0.4948965168272617, 0.02884613809488072, 0.01648461612162316, 0.07589155765283533]}, {"classes": [0, 1, 2], "feature": [5, 6, 7, 0, 4, 0, 2, 1, 0, 2, 9, 0, 1, 0, 10, 0, 2, 7, 2, 1, 0, 2, 8, 0, 2, 10, 2, 0, 0, 3, 0, 1, 7, 10, 2, 6, 1, 9, 0, 2, 9, 1, 1, 6, 0, 1, 1], "threshold": [51, 37, 35, 0, 28, 0, 0, 30, 0, 0, 144, 3, 0, 0, 79, 0, 0, 35, 5, 18, 0, 0, 25, 0, 0, 172, 13, 0, 0, 127, 0, 0, 49, 105, 0, 22, 0, 161, 0, 0, 123, 0, 35, 37, 0, 0, 0], "children_left": [1, 2, 3, 4, 5, 0, 0, 8, 0, 0, 11, 12, 0, 0, 15, 0, 0, 18, 19, 20, 0, 0, 23, 0, 0, 26, 27, 0, 0, 30, 0, 0, 33, 34, 0, 36, 0, 38, 0, 0, 41, 0, 43, 44, 0, 0, 0], "children_right": [32, 17, 10, 7, 6, 0, 0, 9, 0, 0, 14, 13, 0, 0, 16, 0, 0, 25, 22, 21, 0, 0, 24, 0, 0, 29, 28, 0, 0, 31, 0, 0, 40, 35, 0, 37, 0, 39, 0, 0, 42, 0, 46, 45, 0, 0, 0], "feature_importances": [0.05338974432194073, 0.07641446749337955, 0.04975459396969538, 0.006175736999195886, 0.01951480374782432, 0.3869504677902087, 0.1786949860482139, 0.13184488063208882, 0.015822089669178186, 0.030994060470465348, 0.05044416885780914]}], "model_configuration": {"classifier": "Decision Tree Ensemble"}, "pipeline_summary": [{"name": "Q1", "type": "query", "outputs": ["temp.raw"], "use_session_preprocessor": true}, {"name": "Magnitude", "type": "transform", "inputs": {"input_data": "temp.raw", "input_columns": ["AccelerometerY", "AccelerometerZ"]}, "outputs": ["temp.Magnitude0"]}, {"set": [{"inputs": {"columns": ["AccelerometerY", "AccelerometerZ", "Magnitude_ST_0000"]}, "function_name": "25th Percentile"}, {"inputs": {"columns": ["AccelerometerY", "AccelerometerZ", "Magnitude_ST_0000"]}, "function_name": "75th Percentile"}, {"inputs": {"columns": ["AccelerometerY", "AccelerometerZ", "Magnitude_ST_0000"]}, "function_name": "Abs Max Column"}, {"inputs": {"columns": ["AccelerometerY", "AccelerometerZ"], "sample_frequency": 1}, "function_name": "Cross Column Correlation"}, {"inputs": {"columns": ["AccelerometerY", "Magnitude_ST_0000"], "sample_frequency": 1}, "function_name": "Cross Column Correlation"}, {"inputs": {"columns": ["AccelerometerZ", "Magnitude_ST_0000"], "sample_frequency": 1}, "function_name": "Cross Column Correlation"}, {"inputs": {"columns": ["AccelerometerY", "AccelerometerZ"]}, "function_name": "Cross Column Mean Crossing Rate"}, {"inputs": {"columns": ["AccelerometerY", "Magnitude_ST_0000"]}, "function_name": "Cross Column Mean Crossing Rate"}, {"inputs": {"columns": ["AccelerometerZ", "Magnitude_ST_0000"]}, "function_name": "Cross Column Mean Crossing Rate"}, {"inputs": {"columns": ["AccelerometerY", "AccelerometerZ"]}, "function_name": "Cross Column Mean Crossing with Offset"}, {"inputs": {"columns": ["AccelerometerY", "Magnitude_ST_0000"]}, "function_name": "Cross Column Mean Crossing with Offset"}, {"inputs": {"columns": ["AccelerometerZ", "Magnitude_ST_0000"]}, "function_name": "Cross Column Mean Crossing with Offset"}, {"inputs": {"columns": ["AccelerometerY"], "new_length": 32}, "function_name": "Downsample Max With Normaliztion"}, {"inputs": {"columns": ["AccelerometerZ"], "new_length": 32}, "function_name": "Downsample Max With Normaliztion"}, {"inputs": {"columns": ["Magnitude_ST_0000"], "new_length": 32}, "function_name": "Downsample Max With Normaliztion"}, {"inputs": {"columns": ["AccelerometerY", "AccelerometerZ", "Magnitude_ST_0000"]}, "function_name": "Interquartile Range"}, {"inputs": {"columns": ["AccelerometerY", "AccelerometerZ", "Magnitude_ST_0000"]}, "function_name": "Max Column"}, {"inputs": {"columns": ["AccelerometerY", "AccelerometerZ", "Magnitude_ST_0000"]}, "function_name": "Min Column"}, {"inputs": {"columns": ["AccelerometerY", "AccelerometerZ", "Magnitude_ST_0000"], "threshold": 200}, "function_name": "Positive Zero Crossings"}, {"inputs": {"columns": ["AccelerometerY", "AccelerometerZ"], "threshold": 300}, "function_name": "Positive Zero Crossings"}, {"inputs": {"columns": ["AccelerometerY", "AccelerometerZ", "Magnitude_ST_0000"]}, "function_name": "Total Energy"}, {"inputs": {"columns": ["AccelerometerY", "AccelerometerZ"]}, "function_name": "Two Column Mean Difference"}, {"inputs": {"columns": ["AccelerometerY", "Magnitude_ST_0000"]}, "function_name": "Two Column Mean Difference"}, {"inputs": {"columns": ["AccelerometerZ", "Magnitude_ST_0000"]}, "function_name": "Two Column Mean Difference"}, {"inputs": {"columns": ["AccelerometerY", "AccelerometerZ"]}, "function_name": "Two Column Median Difference"}, {"inputs": {"columns": ["AccelerometerY", "Magnitude_ST_0000"]}, "function_name": "Two Column Median Difference"}, {"inputs": {"columns": ["AccelerometerZ", "Magnitude_ST_0000"]}, "function_name": "Two Column Median Difference"}, {"inputs": {"columns": ["AccelerometerY", "AccelerometerZ"]}, "function_name": "Two Column Min Max Difference"}, {"inputs": {"columns": ["AccelerometerY", "Magnitude_ST_0000"]}, "function_name": "Two Column Min Max Difference"}, {"inputs": {"columns": ["AccelerometerZ", "Magnitude_ST_0000"]}, "function_name": "Two Column Min Max Difference"}, {"inputs": {"columns": ["AccelerometerY", "AccelerometerZ"]}, "function_name": "Two Column Peak Location Difference"}, {"inputs": {"columns": ["AccelerometerY", "Magnitude_ST_0000"]}, "function_name": "Two Column Peak Location Difference"}, {"inputs": {"columns": ["AccelerometerZ", "Magnitude_ST_0000"]}, "function_name": "Two Column Peak Location Difference"}, {"inputs": {"columns": ["AccelerometerY", "AccelerometerZ"]}, "function_name": "Two Column Peak To Peak Difference"}, {"inputs": {"columns": ["AccelerometerY", "Magnitude_ST_0000"]}, "function_name": "Two Column Peak To Peak Difference"}, {"inputs": {"columns": ["AccelerometerZ", "Magnitude_ST_0000"]}, "function_name": "Two Column Peak To Peak Difference"}], "name": "generator_set", "type": "generatorset", "inputs": {"input_data": "temp.Magnitude0", "group_columns": ["segment_uuid", "Label", "SegmentID"]}, "outputs": ["temp.generator_set0", "temp.features.generator_set0"]}, {"set": [{"inputs": {"threshold": 0.95}, "function_name": "Correlation Threshold"}, {"inputs": {"threshold": 0.15}, "function_name": "Variance Threshold"}, {"inputs": {"feature_number": 5}, "function_name": "t-Test Feature Selector"}], "name": "selector_set", "type": "selectorset", "inputs": {"input_data": "temp.generator_set0", "label_column": "Label", "cost_function": "sum", "feature_table": "temp.features.generator_set0", "remove_columns": [], "number_of_features": 10, "passthrough_columns": ["segment_uuid", "Label", "SegmentID"]}, "outputs": ["temp.selector_set0", "temp.features.selector_set0"], "refinement": {}}, {"name": "Isolation Forest Filtering", "type": "sampler", "inputs": {"input_data": "temp.selector_set0", "label_column": "Label", "assign_unknown": false, "filtering_label": ["key_io", "knocking", "locking", "noise"], "outliers_fraction": 0.05}, "outputs": ["temp.Isolation_Forest_Filtering0", "temp.features.Isolation_Forest_Filtering0"], "feature_table": "temp.features.selector_set0"}, {"name": "Min Max Scale", "type": "transform", "inputs": {"pad": 0, "max_bound": 255, "min_bound": 0, "input_data": "temp.Isolation_Forest_Filtering0", "passthrough_columns": ["segment_uuid", "Label", "SegmentID"], "feature_min_max_defaults": null, "feature_min_max_parameters": {}}, "outputs": ["temp.Min_Max_Scale0", "temp.features.Min_Max_Scale0"], "feature_table": "temp.features.Isolation_Forest_Filtering0"}, {"name": "tvo", "type": "tvo", "outputs": ["temp.tvo0.0.0", "temp.features.tvo0.0.0"], "input_data": "temp.Min_Max_Scale0.data_0.csv.gz", "optimizers": [{"name": "Random Forest", "inputs": {"max_depth": 5, "n_estimators": 25}}], "classifiers": [{"name": "Decision Tree Ensemble", "inputs": {}}], "label_column": "Label", "feature_table": "temp.features.Min_Max_Scale0", "ignore_columns": ["segment_uuid", "SegmentID"], "validation_seed": 0, "validation_methods": [{"name": "Stratified Shuffle Split", "inputs": {"test_size": 0, "number_of_folds": 1, "validation_size": 0.2}}]}], "query_summary": {"columns": "[\"AccelerometerY\", \"AccelerometerZ\"]", "segmenter": {"id": 158, "name": "AutoSegmentation", "custom": false, "parent": null, "project": 2343, "function": null, "parameters": {"name": "General Threshold Segmentation", "type": "segmenter", "uuid": "5d685c61-26d7-4298-b309-615732d7fb62", "inputs": {"drop_over": false, "input_data": "temp.Magnitude0", "group_columns": [], "first_comparison": "max", "second_comparison": "min", "first_vt_threshold": 400.0, "max_segment_length": 175, "min_segment_length": 75, "second_vt_threshold": 100.0, "keep_partial_segment": true, "return_segment_index": false, "first_threshold_space": "variance", "threshold_space_width": 30, "second_threshold_space": "variance", "first_column_of_interest": "Magnitude_ST_0000", "second_column_of_interest": "Magnitude_ST_0000"}, "outputs": ["temp.segmenter0"]}, "preprocess": {"0": {"name": "Magnitude", "params": {"name": "Magnitude", "type": "transform", "inputs": {"input_data": "temp.raw", "input_columns": ["AccelerometerY", "AccelerometerZ"]}, "outputs": ["temp.Preprocess0"], "feature_table": null}, "actual_name": "Magnitude_ST_0000"}}}, "task_status": "CACHED", "label_column": "Label", "combine_labels": null, "metadata_filter": "", "metadata_columns": "[\"segment_uuid\"]", "eventlabel_filter": null, "eventlabel_columns": null, "summary_statistics": {"samples": {"key_io": 61878, "locking": 46696, "knocking": 29718}, "segments": {"key_io": 757, "locking": 578, "knocking": 276}, "total_segments": 1611}, "capture_configurations": []}, "feature_summary": [{"Feature": "gen_0015_Magnitude_ST_0000SamplingMax09", "Sensors": ["Magnitude_ST_0000"], "Category": "Sampling", "Generator": "Downsample Max With Normaliztion", "LibraryPack": null, "ContextIndex": 85, "EliminatedBy": null, "GeneratorIndex": 14, "GeneratorTrueIndex": 15, "GeneratorFamilyIndex": 9, "GeneratorFamilyFeatures": 32}, {"Feature": "gen_0016_AccelerometerYIQR", "Sensors": ["AccelerometerY"], "Category": "Statistical", "Generator": "Interquartile Range", "LibraryPack": null, "ContextIndex": 108, "EliminatedBy": null, "GeneratorIndex": 15, "GeneratorTrueIndex": 16, "GeneratorFamilyIndex": 0, "GeneratorFamilyFeatures": 1}, {"Feature": "gen_0018_Magnitude_ST_0000IQR", "Sensors": ["Magnitude_ST_0000"], "Category": "Statistical", "Generator": "Interquartile Range", "LibraryPack": null, "ContextIndex": 110, "EliminatedBy": null, "GeneratorIndex": 15, "GeneratorTrueIndex": 18, "GeneratorFamilyIndex": 0, "GeneratorFamilyFeatures": 1}, {"Feature": "gen_0020_AYAZM0_cross_min_col", "Sensors": ["AccelerometerY", "AccelerometerZ", "Magnitude_ST_0000"], "Category": "Column Fusion", "Generator": "Min Column", "LibraryPack": null, "ContextIndex": 112, "EliminatedBy": null, "GeneratorIndex": 17, "GeneratorTrueIndex": 20, "GeneratorFamilyIndex": 0, "GeneratorFamilyFeatures": 1}, {"Feature": "gen_0021_AccelerometerYPositiveZeroCrossings", "Sensors": ["AccelerometerY"], "Category": "Statistical", "Generator": "Positive Zero Crossings", "LibraryPack": null, "ContextIndex": 113, "EliminatedBy": null, "GeneratorIndex": 18, "GeneratorTrueIndex": 21, "GeneratorFamilyIndex": 0, "GeneratorFamilyFeatures": 1}, {"Feature": "gen_0022_AccelerometerZPositiveZeroCrossings", "Sensors": ["AccelerometerZ"], "Category": "Statistical", "Generator": "Positive Zero Crossings", "LibraryPack": null, "ContextIndex": 114, "EliminatedBy": null, "GeneratorIndex": 18, "GeneratorTrueIndex": 22, "GeneratorFamilyIndex": 0, "GeneratorFamilyFeatures": 1}, {"Feature": "gen_0024_AccelerometerYPositiveZeroCrossings", "Sensors": ["AccelerometerY"], "Category": "Statistical", "Generator": "Positive Zero Crossings", "LibraryPack": null, "ContextIndex": 116, "EliminatedBy": null, "GeneratorIndex": 19, "GeneratorTrueIndex": 24, "GeneratorFamilyIndex": 0, "GeneratorFamilyFeatures": 1}, {"Feature": "gen_0025_AccelerometerZPositiveZeroCrossings", "Sensors": ["AccelerometerZ"], "Category": "Statistical", "Generator": "Positive Zero Crossings", "LibraryPack": null, "ContextIndex": 117, "EliminatedBy": null, "GeneratorIndex": 19, "GeneratorTrueIndex": 25, "GeneratorFamilyIndex": 0, "GeneratorFamilyFeatures": 1}, {"Feature": "gen_0026_TotEng", "Sensors": ["AccelerometerY", "AccelerometerZ", "Magnitude_ST_0000"], "Category": "Energy", "Generator": "Total Energy", "LibraryPack": null, "ContextIndex": 118, "EliminatedBy": null, "GeneratorIndex": 20, "GeneratorTrueIndex": 26, "GeneratorFamilyIndex": 0, "GeneratorFamilyFeatures": 1}, {"Feature": "gen_0039_AYAZ_cross_p2p_diff", "Sensors": ["AccelerometerY", "AccelerometerZ"], "Category": "Column Fusion", "Generator": "Two Column Peak To Peak Difference", "LibraryPack": null, "ContextIndex": 131, "EliminatedBy": null, "GeneratorIndex": 33, "GeneratorTrueIndex": 39, "GeneratorFamilyIndex": 0, "GeneratorFamilyFeatures": 1}, {"Feature": "gen_0041_AZM0_cross_p2p_diff", "Sensors": ["AccelerometerZ", "Magnitude_ST_0000"], "Category": "Column Fusion", "Generator": "Two Column Peak To Peak Difference", "LibraryPack": null, "ContextIndex": 133, "EliminatedBy": null, "GeneratorIndex": 35, "GeneratorTrueIndex": 41, "GeneratorFamilyIndex": 0, "GeneratorFamilyFeatures": 1}], "transform_summary": [{"step_type": "transform", "function_name": "Min Max Scale", "parameter_name": "feature_min_max_parameters", "parameter_value": {"maximums": {"gen_0026_TotEng": 70136.0, "gen_0016_AccelerometerYIQR": 100.0, "gen_0039_AYAZ_cross_p2p_diff": 1905.0, "gen_0041_AZM0_cross_p2p_diff": 999.0, "gen_0018_Magnitude_ST_0000IQR": 199.5, "gen_0020_AYAZM0_cross_min_col": 2.0, "gen_0015_Magnitude_ST_0000SamplingMax09": 255.00001525878906, "gen_0021_AccelerometerYPositiveZeroCrossings": 22.0, "gen_0022_AccelerometerZPositiveZeroCrossings": 27.0, "gen_0024_AccelerometerYPositiveZeroCrossings": 17.0, "gen_0025_AccelerometerZPositiveZeroCrossings": 18.0}, "minimums": {"gen_0026_TotEng": 1325.0, "gen_0016_AccelerometerYIQR": 4.0, "gen_0039_AYAZ_cross_p2p_diff": -1882.0, "gen_0041_AZM0_cross_p2p_diff": -1328.0, "gen_0018_Magnitude_ST_0000IQR": 2.0, "gen_0020_AYAZM0_cross_min_col": 1.0, "gen_0015_Magnitude_ST_0000SamplingMax09": 0.0, "gen_0021_AccelerometerYPositiveZeroCrossings": 0.0, "gen_0022_AccelerometerZPositiveZeroCrossings": 0.0, "gen_0024_AccelerometerYPositiveZeroCrossings": 0.0, "gen_0025_AccelerometerZPositiveZeroCrossings": 0.0}}}], "sensor_summary": [], "class_map": {"1": "key_io", "2": "knocking", "3": "locking"}, "name": "dte_model", "project": 2343, "knowledgepack_summary": {"sensor_columns": ["AccelerometerY", "AccelerometerZ"], "data_columns_ordered": ["ACCELEROMETERY", "ACCELEROMETERZ", "MAGNITUDE_ST_0000"], "recognition_pipeline": [{"name": "Magnitude", "type": "transform", "inputs": {"input_data": "temp.raw", "input_columns": ["AccelerometerY", "AccelerometerZ"]}, "outputs": ["temp.Magnitude0"]}, {"name": "General Threshold Segmentation", "type": "segmenter", "uuid": "5d685c61-26d7-4298-b309-615732d7fb62", "inputs": {"drop_over": false, "input_data": "temp.Magnitude0", "group_columns": [], "first_comparison": "max", "second_comparison": "min", "first_vt_threshold": 400.0, "max_segment_length": 175, "min_segment_length": 75, "second_vt_threshold": 100.0, "keep_partial_segment": true, "return_segment_index": false, "first_threshold_space": "variance", "threshold_space_width": 30, "second_threshold_space": "variance", "first_column_of_interest": "Magnitude_ST_0000", "second_column_of_interest": "Magnitude_ST_0000"}, "outputs": ["temp.segmenter0"]}, {"set": [{"family": true, "inputs": {"columns": ["Magnitude_ST_0000"], "new_length": 32}, "outputs": [0], "function_name": "Downsample Max With Normaliztion"}, {"family": null, "inputs": {"columns": ["AccelerometerY"]}, "outputs": [0], "function_name": "Interquartile Range"}, {"family": null, "inputs": {"columns": ["Magnitude_ST_0000"]}, "outputs": [0], "function_name": "Interquartile Range"}, {"family": false, "inputs": {"columns": ["AccelerometerY", "AccelerometerZ", "Magnitude_ST_0000"]}, "outputs": [0], "function_name": "Min Column"}, {"family": null, "inputs": {"columns": ["AccelerometerY"], "threshold": 200}, "outputs": [0], "function_name": "Positive Zero Crossings"}, {"family": null, "inputs": {"columns": ["AccelerometerZ"], "threshold": 200}, "outputs": [0], "function_name": "Positive Zero Crossings"}, {"family": null, "inputs": {"columns": ["AccelerometerY"], "threshold": 300}, "outputs": [0], "function_name": "Positive Zero Crossings"}, {"family": null, "inputs": {"columns": ["AccelerometerZ"], "threshold": 300}, "outputs": [0], "function_name": "Positive Zero Crossings"}, {"family": null, "inputs": {"columns": ["AccelerometerY", "AccelerometerZ", "Magnitude_ST_0000"]}, "outputs": [0], "function_name": "Total Energy"}, {"family": false, "inputs": {"columns": ["AccelerometerY", "AccelerometerZ"]}, "outputs": [0], "function_name": "Two Column Peak To Peak Difference"}, {"family": false, "inputs": {"columns": ["AccelerometerZ", "Magnitude_ST_0000"]}, "outputs": [0], "function_name": "Two Column Peak To Peak Difference"}], "name": "generator_set", "type": "generatorset", "inputs": {"input_data": "temp.segmenter0", "group_columns": ["segment_uuid", "Label", "SegmentID"]}, "outputs": ["temp.generator_set0", "temp.features.generator_set0"]}, {"name": "Min Max Scale", "type": "transform", "inputs": {"pad": 0, "max_bound": 255, "min_bound": 0, "input_data": "temp.generator_set0", "passthrough_columns": ["segment_uuid", "Label", "SegmentID"], "feature_min_max_defaults": null, "feature_min_max_parameters": {"maximums": {"gen_0026_TotEng": 70136.0, "gen_0016_AccelerometerYIQR": 100.0, "gen_0039_AYAZ_cross_p2p_diff": 1905.0, "gen_0041_AZM0_cross_p2p_diff": 999.0, "gen_0018_Magnitude_ST_0000IQR": 199.5, "gen_0020_AYAZM0_cross_min_col": 2.0, "gen_0015_Magnitude_ST_0000SamplingMax09": 255.00001525878906, "gen_0021_AccelerometerYPositiveZeroCrossings": 22.0, "gen_0022_AccelerometerZPositiveZeroCrossings": 27.0, "gen_0024_AccelerometerYPositiveZeroCrossings": 17.0, "gen_0025_AccelerometerZPositiveZeroCrossings": 18.0}, "minimums": {"gen_0026_TotEng": 1325.0, "gen_0016_AccelerometerYIQR": 4.0, "gen_0039_AYAZ_cross_p2p_diff": -1882.0, "gen_0041_AZM0_cross_p2p_diff": -1328.0, "gen_0018_Magnitude_ST_0000IQR": 2.0, "gen_0020_AYAZM0_cross_min_col": 1.0, "gen_0015_Magnitude_ST_0000SamplingMax09": 0.0, "gen_0021_AccelerometerYPositiveZeroCrossings": 0.0, "gen_0022_AccelerometerZPositiveZeroCrossings": 0.0, "gen_0024_AccelerometerYPositiveZeroCrossings": 0.0, "gen_0025_AccelerometerZPositiveZeroCrossings": 0.0}}}, "outputs": ["temp.Min_Max_Scale0", "temp.features.Min_Max_Scale0"], "feature_table": "temp.features.generator_set0"}]}}