{"uuid": "bab2eb7e-7dfd-428b-8509-72b12b1e6dcb", "neuron_array": [{"classes": [0, 1, 2], "feature": [7, 8, 4, 10, 1, 0, 2, 10, 0, 1, 10, 5, 2, 0, 3, 0, 0, 7, 6, 4, 0, 2, 9, 0, 2, 4, 10, 0, 1, 0, 1, 0, 8, 9, 4, 8, 0, 1, 0, 6, 9, 0, 2, 0, 10, 8, 2, 1, 1], "threshold": [49, 34, 40, 137, 23, 0, 0, 201, 0, 0, 137, 32, 0, 0, 127, 0, 0, 35, 52, 40, 0, 0, 77, 0, 0, 28, 78, 0, 0, 3, 0, 0, 55, 121, 51, 34, 0, 0, 0, 37, 148, 0, 0, 0, 88, 100, 0, 0, 0], "children_left": [1, 2, 3, 4, 5, 0, 0, 8, 0, 0, 11, 12, 0, 0, 15, 0, 0, 18, 19, 20, 0, 0, 23, 0, 0, 26, 27, 0, 0, 30, 0, 0, 33, 34, 35, 36, 0, 0, 0, 40, 41, 0, 0, 0, 45, 46, 0, 0, 0], "children_right": [32, 17, 10, 7, 6, 0, 0, 9, 0, 0, 14, 13, 0, 0, 16, 0, 0, 25, 22, 21, 0, 0, 24, 0, 0, 29, 28, 0, 0, 31, 0, 0, 44, 39, 38, 37, 0, 0, 0, 43, 42, 0, 0, 0, 48, 47, 0, 0, 0], "feature_importances": [0.024681184954624784, 0.06654414157688293, 0.0, 0.006581478542633432, 0.13305529105671768, 0.014120081827522626, 0.056806427650219364, 0.44258537117453867, 0.14707214696276022, 0.03801303278361676, 0.07054084347048349]}, {"classes": [0, 1, 2], "feature": [7, 6, 7, 3, 8, 0, 0, 1, 0, 0, 2, 0, 10, 0, 1, 4, 5, 7, 2, 2, 10, 0, 1, 10, 1, 2, 2, 7, 2, 1, 2, 0, 8, 0, 6, 1, 0, 1, 9, 6, 5, 0, 1, 8, 1, 1, 2], "threshold": [49, 37, 35, 127, 43, 0, 0, 23, 0, 0, 4, 0, 137, 0, 0, 51, 23, 7, 0, 0, 193, 0, 0, 140, 29, 0, 0, 35, 0, 0, 10, 21, 36, 0, 22, 0, 0, 0, 221, 7, 46, 0, 0, 51, 0, 0, 0], "children_left": [1, 2, 3, 4, 5, 0, 0, 8, 0, 0, 11, 0, 13, 0, 0, 16, 17, 18, 0, 0, 21, 0, 0, 24, 25, 0, 0, 28, 0, 0, 31, 32, 33, 0, 35, 0, 0, 0, 39, 40, 41, 0, 0, 44, 0, 0, 0], "children_right": [30, 15, 10, 7, 6, 0, 0, 9, 0, 0, 12, 0, 14, 0, 0, 23, 20, 19, 0, 0, 22, 0, 0, 27, 26, 0, 0, 29, 0, 0, 38, 37, 34, 0, 36, 0, 0, 0, 46, 43, 42, 0, 0, 45, 0, 0, 0], "feature_importances": [0.008026364069529788, 0.03724472712341322, 0.04479239703524973, 0.024714762061673244, 0.06760845773930627, 0.029869119839672813, 0.19960345144879893, 0.4984756489214269, 0.028658691058734326, 0.010157688850745762, 0.0508486918514491]}, {"classes": [0, 1, 2], "feature": [6, 9, 7, 7, 4, 0, 2, 3, 0, 1, 0, 9, 1, 0, 1, 7, 5, 2, 0, 2, 8, 0, 0, 9, 8, 0, 1, 1, 0, 2, 8, 9, 3, 5, 2, 0, 8, 0, 1, 1, 2, 0, 2, 4, 2, 2, 9, 5, 4, 1, 1, 1, 1, 6, 0, 2, 0, 2, 1], "threshold": [37, 117, 49, 21, 28, 0, 0, 127, 0, 0, 93, 64, 0, 0, 0, 49, 13, 10, 0, 0, 33, 0, 0, 148, 38, 0, 0, 44, 0, 0, 55, 124, 127, 13, 0, 0, 41, 0, 0, 15, 8, 0, 0, 51, 0, 0, 135, 51, 86, 0, 0, 0, 31, 67, 0, 0, 60, 0, 0], "children_left": [1, 2, 3, 4, 5, 0, 0, 8, 0, 0, 11, 12, 0, 0, 0, 16, 17, 18, 0, 0, 21, 0, 0, 24, 25, 0, 0, 28, 0, 0, 31, 32, 33, 34, 0, 0, 37, 0, 0, 40, 41, 0, 0, 44, 0, 0, 47, 48, 49, 0, 0, 0, 53, 54, 0, 0, 57, 0, 0], "children_right": [30, 15, 10, 7, 6, 0, 0, 9, 0, 0, 14, 13, 0, 0, 0, 23, 20, 19, 0, 0, 22, 0, 0, 27, 26, 0, 0, 29, 0, 0, 46, 39, 36, 35, 0, 0, 38, 0, 0, 43, 42, 0, 0, 45, 0, 0, 52, 51, 50, 0, 0, 0, 56, 55, 0, 0, 58, 0, 0], "feature_importances": [0.015925377555300498, 0.03512582474733974, 0.0577501453497099, 0.03930380372490068, 0.05167182510101069, 0.02944898648877525, 0.20775702659357817, 0.08038894146208332, 0.3560755661606704, 0.12655250281663138, 0.0]}, {"classes": [0, 1, 2], "feature": [2, 6, 8, 1, 8, 0, 0, 10, 2, 0, 1, 7, 4, 1, 0, 2, 1, 2, 2, 8, 2, 0, 2, 0, 1, 1, 0, 1, 9, 1, 2, 1, 4, 1, 1, 0, 1], "threshold": [41, 37, 56, 22, 7, 0, 0, 139, 0, 0, 0, 35, 51, 20, 0, 0, 29, 0, 0, 54, 14, 0, 0, 0, 0, 0, 0, 54, 93, 0, 0, 0, 28, 30, 0, 0, 0], "children_left": [1, 2, 3, 4, 5, 0, 0, 8, 0, 0, 0, 12, 13, 14, 0, 0, 17, 0, 0, 20, 21, 0, 0, 24, 0, 0, 27, 28, 29, 0, 0, 0, 33, 34, 0, 0, 0], "children_right": [26, 11, 10, 7, 6, 0, 0, 9, 0, 0, 0, 19, 16, 15, 0, 0, 18, 0, 0, 23, 22, 0, 0, 25, 0, 0, 32, 31, 30, 0, 0, 0, 36, 35, 0, 0, 0], "feature_importances": [0.018296372009397373, 0.1730359504903027, 0.2709464573205447, 0.0, 0.06490979337682068, 0.0, 0.16623011558406395, 0.10553238286361567, 0.16415426026713034, 0.003916589743647593, 0.03297807834447684]}, {"classes": [0, 1, 2], "feature": [7, 4, 1, 10, 1, 0, 0, 3, 0, 0, 1, 3, 2, 0, 10, 2, 2, 6, 1, 2, 0, 2, 5, 2, 0, 0, 2, 0, 2, 8, 2, 1, 8, 0, 9, 10, 8, 0, 1, 8, 1, 1, 10, 0, 2], "threshold": [49, 40, 37, 142, 14, 0, 0, 127, 0, 0, 59, 127, 0, 0, 138, 0, 0, 52, 26, 16, 0, 0, 32, 0, 0, 43, 5, 0, 0, 48, 0, 0, 39, 0, 198, 89, 53, 0, 0, 52, 0, 0, 80, 0, 0], "children_left": [1, 2, 3, 4, 5, 0, 0, 8, 0, 0, 11, 12, 0, 0, 15, 0, 0, 18, 19, 20, 0, 0, 23, 0, 0, 26, 27, 0, 0, 30, 0, 0, 33, 0, 35, 36, 37, 0, 0, 40, 0, 0, 43, 0, 0], "children_right": [32, 17, 10, 7, 6, 0, 0, 9, 0, 0, 14, 13, 0, 0, 16, 0, 0, 25, 22, 21, 0, 0, 24, 0, 0, 29, 28, 0, 0, 31, 0, 0, 34, 0, 42, 39, 38, 0, 0, 41, 0, 0, 44, 0, 0], "feature_importances": [0.013005080302497354, 0.14581275598307603, 0.02213344851084639, 0.04823203161140767, 0.2004599132952807, 0.03209455589260718, 0.04918026548650385, 0.3827621936320578, 0.04416817864548166, 0.021369551491921348, 0.04078202514832001]}, {"classes": [0, 1, 2], "feature": [7, 10, 3, 7, 6, 2, 2, 8, 0, 2, 4, 1, 0, 0, 0, 2, 0, 4, 1, 8, 0, 1, 7, 0, 0, 0, 3, 2, 2, 10, 0, 1, 8, 4, 10, 0, 3, 1, 1, 0, 7, 2, 1, 9, 0, 2, 8, 6, 1, 5, 1, 0, 1], "threshold": [49, 122, 127, 35, 52, 0, 0, 50, 0, 0, 51, 22, 0, 0, 18, 0, 0, 51, 18, 34, 0, 0, 35, 0, 0, 46, 127, 0, 0, 194, 0, 0, 56, 40, 100, 0, 127, 0, 0, 0, 63, 0, 0, 147, 0, 0, 60, 52, 0, 51, 0, 0, 0], "children_left": [1, 2, 3, 4, 5, 0, 0, 8, 0, 0, 11, 12, 0, 0, 15, 0, 0, 18, 19, 20, 0, 0, 23, 0, 0, 26, 27, 0, 0, 30, 0, 0, 33, 34, 35, 0, 37, 0, 0, 40, 41, 0, 0, 44, 0, 0, 47, 48, 0, 50, 0, 0, 0], "children_right": [32, 17, 10, 7, 6, 0, 0, 9, 0, 0, 14, 13, 0, 0, 16, 0, 0, 25, 22, 21, 0, 0, 24, 0, 0, 29, 28, 0, 0, 31, 0, 0, 46, 39, 36, 0, 38, 0, 0, 43, 42, 0, 0, 45, 0, 0, 52, 49, 0, 51, 0, 0, 0], "feature_importances": [0.024145191447295867, 0.0551126323323993, 0.0, 0.053429467865196346, 0.20491622035047716, 0.003402852203065452, 0.02975404090039722, 0.4281740544830777, 0.06589781077528978, 0.012564377365164746, 0.12260335227763647]}, {"classes": [0, 1, 2], "feature": [10, 6, 8, 4, 5, 0, 0, 7, 2, 0, 1, 7, 1, 3, 2, 0, 9, 2, 2, 1, 3, 2, 1, 1, 8, 7, 4, 3, 0, 0, 9, 0, 2, 6, 1, 0, 1, 9, 0, 2, 1, 1, 1, 0, 1], "threshold": [168, 37, 55, 28, 13, 0, 0, 21, 0, 0, 0, 63, 37, 127, 0, 0, 156, 0, 0, 31, 127, 0, 0, 0, 54, 35, 40, 127, 0, 0, 95, 0, 0, 52, 11, 0, 0, 119, 0, 0, 18, 17, 0, 0, 0], "children_left": [1, 2, 3, 4, 5, 0, 0, 8, 0, 0, 0, 12, 13, 14, 0, 0, 17, 0, 0, 20, 21, 0, 0, 0, 25, 26, 27, 28, 0, 0, 31, 0, 0, 34, 35, 0, 0, 38, 0, 0, 41, 42, 0, 0, 0], "children_right": [24, 11, 10, 7, 6, 0, 0, 9, 0, 0, 0, 19, 16, 15, 0, 0, 18, 0, 0, 23, 22, 0, 0, 0, 40, 33, 30, 29, 0, 0, 32, 0, 0, 37, 36, 0, 0, 39, 0, 0, 44, 43, 0, 0, 0], "feature_importances": [0.0, 0.05957635129230048, 0.0, 0.036194504707104905, 0.08745045698404146, 0.010390797555997944, 0.1972626693603408, 0.1809627204497168, 0.2161050945091776, 0.02873252177855312, 0.1833248833627669]}, {"classes": [0, 1, 2], "feature": [5, 6, 4, 5, 10, 0, 0, 8, 0, 1, 9, 3, 2, 0, 8, 2, 2, 7, 1, 9, 0, 2, 1, 2, 2, 9, 1, 9, 0, 2, 7, 0, 2, 9, 10, 1, 1, 0, 9, 1, 8, 0, 2, 0, 1], "threshold": [51, 52, 40, 23, 156, 0, 0, 37, 0, 0, 166, 127, 0, 0, 39, 0, 0, 35, 25, 76, 0, 0, 33, 0, 0, 99, 0, 145, 0, 0, 49, 1, 0, 131, 183, 0, 0, 0, 122, 0, 46, 0, 17, 0, 0], "children_left": [1, 2, 3, 4, 5, 0, 0, 8, 0, 0, 11, 12, 0, 0, 15, 0, 0, 18, 19, 20, 0, 0, 23, 0, 0, 26, 0, 28, 0, 0, 31, 32, 0, 34, 35, 0, 0, 0, 39, 0, 41, 0, 43, 0, 0], "children_right": [30, 17, 10, 7, 6, 0, 0, 9, 0, 0, 14, 13, 0, 0, 16, 0, 0, 25, 22, 21, 0, 0, 24, 0, 0, 27, 0, 29, 0, 0, 38, 33, 0, 37, 36, 0, 0, 0, 40, 0, 42, 0, 44, 0, 0], "feature_importances": [0.013336632691544234, 0.015870806993060725, 0.002208837649014102, 0.034714096081811065, 0.08955926974643291, 0.47786505540324853, 0.17812432251472854, 0.03437424781414298, 0.05302258608427754, 0.08976472330515568, 0.011159421716583672]}, {"classes": [0, 1, 2], "feature": [2, 6, 1, 1, 5, 0, 0, 8, 0, 1, 0, 5, 2, 0, 8, 0, 1, 7, 7, 1, 2, 2, 8, 0, 1, 1, 7, 5, 0, 2, 1], "threshold": [41, 37, 30, 14, 4, 0, 0, 41, 0, 0, 83, 23, 0, 0, 51, 0, 0, 63, 35, 25, 0, 0, 52, 0, 0, 0, 35, 9, 0, 0, 0], "children_left": [1, 2, 3, 4, 5, 0, 0, 8, 0, 0, 11, 12, 0, 0, 15, 0, 0, 18, 19, 20, 0, 0, 23, 0, 0, 0, 27, 28, 0, 0, 0], "children_right": [26, 17, 10, 7, 6, 0, 0, 9, 0, 0, 14, 13, 0, 0, 16, 0, 0, 25, 22, 21, 0, 0, 24, 0, 0, 0, 30, 29, 0, 0, 0], "feature_importances": [0.03429410703475251, 0.15650970669798211, 0.27306116571943523, 0.0, 0.0, 0.039639414346328235, 0.23561221491150058, 0.16296486418903003, 0.09791852710097136, 0.0, 0.0]}, {"classes": [0, 1, 2], "feature": [9, 2, 1, 7, 8, 0, 2, 10, 0, 1, 7, 8, 0, 2, 1, 7, 4, 10, 0, 1, 2, 2, 2, 0, 0, 1, 0, 1, 4, 8, 9, 5, 0, 0, 10, 0, 2, 7, 0, 2, 1, 1, 0, 5, 7, 2, 2, 6, 0, 2, 7, 8, 2, 0, 1], "threshold": [119, 16, 36, 35, 35, 0, 0, 220, 0, 0, 63, 24, 0, 0, 0, 35, 40, 182, 0, 0, 21, 0, 0, 29, 27, 0, 0, 0, 51, 55, 161, 23, 0, 0, 123, 0, 0, 21, 0, 11, 0, 0, 36, 42, 35, 0, 0, 52, 0, 0, 42, 40, 0, 0, 0], "children_left": [1, 2, 3, 4, 5, 0, 0, 8, 0, 0, 11, 12, 0, 0, 0, 16, 17, 18, 0, 0, 21, 0, 0, 24, 25, 0, 0, 0, 29, 30, 31, 32, 0, 0, 35, 0, 0, 38, 0, 40, 0, 0, 43, 44, 45, 0, 0, 48, 0, 0, 51, 52, 0, 0, 0], "children_right": [28, 15, 10, 7, 6, 0, 0, 9, 0, 0, 14, 13, 0, 0, 0, 23, 20, 19, 0, 0, 22, 0, 0, 27, 26, 0, 0, 0, 42, 37, 34, 33, 0, 0, 36, 0, 0, 39, 0, 41, 0, 0, 50, 47, 46, 0, 0, 49, 0, 0, 54, 53, 0, 0, 0], "feature_importances": [0.04483572635366479, 0.04184788680652953, 0.15127629570481627, 0.0, 0.21159362817103042, 0.02824020165545115, 0.018133320252537662, 0.16824706952410512, 0.08797678554285145, 0.21468949914152174, 0.03315958684749191]}, {"classes": [0, 1, 2], "feature": [5, 1, 8, 6, 8, 0, 0, 2, 9, 7, 0, 1, 10, 0, 2, 4, 7, 5, 2, 0, 10, 0, 1, 2, 4, 2, 2, 1, 8, 0, 6, 1, 8, 0, 0, 1, 1], "threshold": [51, 18, 37, 67, 6, 0, 0, 0, 122, 35, 0, 0, 89, 0, 0, 51, 35, 23, 0, 0, 187, 0, 0, 43, 63, 0, 0, 0, 51, 67, 15, 0, 47, 0, 0, 0, 0], "children_left": [1, 2, 3, 4, 5, 0, 0, 0, 9, 10, 0, 0, 13, 0, 0, 16, 17, 18, 0, 0, 21, 0, 0, 24, 25, 0, 0, 0, 29, 30, 31, 0, 33, 0, 0, 0, 0], "children_right": [28, 15, 8, 7, 6, 0, 0, 0, 12, 11, 0, 0, 14, 0, 0, 23, 20, 19, 0, 0, 22, 0, 0, 27, 26, 0, 0, 0, 36, 35, 32, 0, 34, 0, 0, 0, 0], "feature_importances": [0.007021750532696383, 0.17887781298620128, 0.014988103266967978, 0.0, 0.11023138872334201, 0.4412645649907724, 0.03695612114618684, 0.060271994531284644, 0.08354755794699746, 0.03187368726258784, 0.0349670186129631]}, {"classes": [0, 1, 2], "feature": [7, 10, 6, 10, 2, 0, 2, 6, 0, 0, 4, 2, 2, 0, 8, 2, 2, 1, 8, 3, 0, 0, 3, 2, 1, 5, 2, 0, 2, 4, 0, 2, 8, 0, 8, 10, 2, 0, 2, 4, 1, 0, 1], "threshold": [49, 126, 37, 100, 7, 0, 0, 22, 0, 0, 51, 29, 0, 0, 30, 0, 0, 18, 40, 127, 0, 0, 127, 0, 0, 23, 14, 0, 0, 40, 0, 0, 37, 0, 60, 136, 13, 0, 0, 40, 0, 0, 0], "children_left": [1, 2, 3, 4, 5, 0, 0, 8, 0, 0, 11, 12, 0, 0, 15, 0, 0, 18, 19, 20, 0, 0, 23, 0, 0, 26, 27, 0, 0, 30, 0, 0, 33, 0, 35, 36, 37, 0, 0, 40, 0, 0, 0], "children_right": [32, 17, 10, 7, 6, 0, 0, 9, 0, 0, 14, 13, 0, 0, 16, 0, 0, 25, 22, 21, 0, 0, 24, 0, 0, 29, 28, 0, 0, 31, 0, 0, 34, 0, 42, 39, 38, 0, 0, 41, 0, 0, 0], "feature_importances": [0.0, 0.07261861822108101, 0.04730123768202504, 0.025807586743186693, 0.07210959123532393, 0.01545537445248507, 0.09275914041399233, 0.4492514012056345, 0.0895560305833902, 0.0, 0.13514101946288115]}, {"classes": [0, 1, 2], "feature": [5, 4, 8, 4, 7, 0, 0, 7, 2, 0, 6, 7, 0, 1, 2, 2, 2, 1, 0, 8, 2, 1, 9, 0, 2, 10, 7, 2, 2, 7, 2, 1, 7, 9, 1, 0, 2, 0, 4, 2, 0, 1, 1], "threshold": [51, 40, 37, 28, 21, 0, 0, 7, 0, 0, 37, 49, 0, 0, 19, 0, 0, 38, 2, 63, 0, 0, 168, 0, 0, 178, 35, 0, 0, 35, 0, 0, 49, 156, 0, 24, 0, 0, 28, 14, 0, 0, 0], "children_left": [1, 2, 3, 4, 5, 0, 0, 8, 0, 0, 11, 12, 0, 0, 15, 0, 0, 18, 19, 20, 0, 0, 23, 0, 0, 26, 27, 0, 0, 30, 0, 0, 33, 34, 0, 36, 0, 0, 39, 40, 0, 0, 0], "children_right": [32, 17, 10, 7, 6, 0, 0, 9, 0, 0, 14, 13, 0, 0, 16, 0, 0, 25, 22, 21, 0, 0, 24, 0, 0, 29, 28, 0, 0, 31, 0, 0, 38, 35, 0, 37, 0, 0, 42, 41, 0, 0, 0], "feature_importances": [0.03795119710650508, 0.04732743006399919, 0.008972610060461123, 0.0, 0.2495214060709625, 0.41588595356851193, 0.017079770249578827, 0.08867097918303603, 0.06615539123044926, 0.045720404435453735, 0.022714858031042368]}, {"classes": [0, 1, 2], "feature": [5, 10, 1, 1, 8, 0, 2, 5, 2, 0, 5, 8, 2, 2, 9, 0, 2, 1, 7, 8, 0, 0, 8, 0, 1, 3, 5, 2, 0, 8, 0, 1, 8, 6, 1, 0, 2, 0, 9, 1, 2, 0, 1], "threshold": [51, 131, 22, 13, 36, 0, 0, 13, 0, 0, 23, 28, 0, 0, 133, 0, 0, 18, 49, 7, 0, 0, 35, 0, 0, 127, 23, 0, 0, 41, 0, 0, 48, 22, 0, 1, 0, 0, 145, 0, 24, 0, 0], "children_left": [1, 2, 3, 4, 5, 0, 0, 8, 0, 0, 11, 12, 0, 0, 15, 0, 0, 18, 19, 20, 0, 0, 23, 0, 0, 26, 27, 0, 0, 30, 0, 0, 33, 34, 0, 36, 0, 0, 39, 0, 41, 0, 0], "children_right": [32, 17, 10, 7, 6, 0, 0, 9, 0, 0, 14, 13, 0, 0, 16, 0, 0, 25, 22, 21, 0, 0, 24, 0, 0, 29, 28, 0, 0, 31, 0, 0, 38, 35, 0, 37, 0, 0, 40, 0, 42, 0, 0], "feature_importances": [0.007204479267119231, 0.1882712061215747, 0.004202612905819552, 0.038958802848876, 0.0, 0.46366651324723424, 0.012007465445198718, 0.014206433996855656, 0.12162687612897319, 0.013839021767795655, 0.13601658827055316]}, {"classes": [0, 1, 2], "feature": [5, 6, 4, 1, 8, 0, 1, 8, 2, 0, 3, 5, 2, 0, 4, 0, 2, 4, 1, 2, 0, 0, 0, 2, 0, 1, 10, 2, 0, 10, 2, 2, 8, 6, 1, 0, 8, 1, 1, 9, 1, 0, 1], "threshold": [51, 37, 28, 31, 39, 0, 0, 17, 0, 0, 127, 23, 0, 0, 51, 0, 0, 40, 39, 19, 0, 0, 13, 0, 0, 29, 121, 0, 0, 136, 0, 0, 51, 22, 0, 0, 60, 29, 0, 130, 0, 0, 0], "children_left": [1, 2, 3, 4, 5, 0, 0, 8, 0, 0, 11, 12, 0, 0, 15, 0, 0, 18, 19, 20, 0, 0, 23, 0, 0, 26, 27, 0, 0, 30, 0, 0, 33, 34, 0, 0, 37, 38, 0, 40, 0, 0, 0], "children_right": [32, 17, 10, 7, 6, 0, 0, 9, 0, 0, 14, 13, 0, 0, 16, 0, 0, 25, 22, 21, 0, 0, 24, 0, 0, 29, 28, 0, 0, 31, 0, 0, 36, 35, 0, 0, 42, 39, 0, 41, 0, 0, 0], "feature_importances": [0.009465155099610427, 0.0585677944008658, 0.006803106241019738, 0.030334514043269128, 0.10514397392594187, 0.43567735641408684, 0.21726129283735304, 0.0, 0.08187962592028714, 0.0036701621814815948, 0.051197018936084464]}, {"classes": [0, 1, 2], "feature": [7, 1, 4, 1, 8, 0, 1, 10, 0, 0, 10, 5, 2, 0, 0, 2, 0, 1, 6, 0, 2, 0, 4, 2, 2, 0, 10, 2, 2, 7, 0, 1, 0, 5, 9, 6, 1, 1, 6, 0, 2, 6, 2, 0, 1, 1, 2, 2, 1, 0, 8, 0, 1], "threshold": [49, 25, 51, 14, 41, 0, 0, 139, 0, 0, 123, 46, 0, 0, 1, 0, 0, 38, 52, 10, 0, 0, 63, 0, 0, 30, 126, 0, 0, 35, 0, 0, 15, 51, 132, 37, 0, 0, 37, 0, 0, 37, 14, 0, 0, 0, 16, 14, 0, 0, 41, 0, 0], "children_left": [1, 2, 3, 4, 5, 0, 0, 8, 0, 0, 11, 12, 0, 0, 15, 0, 0, 18, 19, 20, 0, 0, 23, 0, 0, 26, 27, 0, 0, 30, 0, 0, 33, 34, 35, 36, 0, 0, 39, 0, 0, 42, 43, 0, 0, 0, 47, 48, 0, 0, 51, 0, 0], "children_right": [32, 17, 10, 7, 6, 0, 0, 9, 0, 0, 14, 13, 0, 0, 16, 0, 0, 25, 22, 21, 0, 0, 24, 0, 0, 29, 28, 0, 0, 31, 0, 0, 46, 41, 38, 37, 0, 0, 40, 0, 0, 45, 44, 0, 0, 0, 50, 49, 0, 0, 52, 0, 0], "feature_importances": [0.06195991602930641, 0.24975088756969857, 0.027510283439206997, 0.0, 0.07699625329756316, 0.014382271615011108, 0.05677298129885694, 0.41708801875323276, 0.01894942033414527, 0.026502601160067554, 0.05008736650291135]}, {"classes": [0, 1, 2], "feature": [3, 6, 1, 10, 7, 0, 0, 0, 0, 0, 8, 2, 2, 0, 1, 4, 1, 1, 2, 0, 8, 2, 1, 8, 7, 2, 1, 1, 5, 8, 9, 1, 0, 2, 1, 0, 2, 10, 1, 2, 2, 1, 1, 1, 1, 1, 9, 1, 0, 0, 1], "threshold": [127, 37, 37, 142, 21, 0, 0, 187, 0, 0, 55, 25, 0, 0, 0, 63, 18, 10, 0, 0, 57, 0, 0, 70, 70, 0, 0, 0, 51, 39, 163, 60, 0, 0, 15, 0, 0, 129, 38, 0, 0, 26, 0, 0, 30, 29, 144, 0, 0, 0, 0], "children_left": [1, 2, 3, 4, 5, 0, 0, 8, 0, 0, 11, 12, 0, 0, 0, 16, 17, 18, 0, 0, 21, 0, 0, 24, 25, 0, 0, 0, 29, 30, 31, 32, 0, 0, 35, 0, 0, 38, 39, 0, 0, 42, 0, 0, 45, 46, 47, 0, 0, 0, 0], "children_right": [28, 15, 10, 7, 6, 0, 0, 9, 0, 0, 14, 13, 0, 0, 0, 23, 20, 19, 0, 0, 22, 0, 0, 27, 26, 0, 0, 0, 44, 37, 34, 33, 0, 0, 36, 0, 0, 41, 40, 0, 0, 43, 0, 0, 50, 49, 48, 0, 0, 0, 0], "feature_importances": [0.0030040102218486728, 0.15234424806002586, 0.01624468713204923, 0.17768151181276803, 0.02913028742760512, 0.266120660639606, 0.12256249982341341, 0.013514219778220034, 0.10450894774209563, 0.04831299276426711, 0.06657593459810084]}, {"classes": [0, 1, 2], "feature": [5, 6, 4, 1, 8, 0, 1, 9, 2, 2, 1, 9, 0, 0, 7, 2, 0, 5, 10, 1, 2, 2, 9, 2, 2, 10, 8, 0, 2, 8, 1, 1, 7, 0, 2, 6, 6, 1, 0, 1, 8, 0, 1], "threshold": [51, 37, 28, 47, 37, 0, 0, 160, 0, 0, 17, 129, 0, 0, 21, 0, 0, 23, 127, 25, 0, 0, 151, 0, 0, 181, 32, 0, 0, 55, 0, 0, 49, 1, 0, 37, 15, 0, 0, 0, 34, 0, 0], "children_left": [1, 2, 3, 4, 5, 0, 0, 8, 0, 0, 11, 12, 0, 0, 15, 0, 0, 18, 19, 20, 0, 0, 23, 0, 0, 26, 27, 0, 0, 30, 0, 0, 33, 34, 0, 36, 37, 0, 0, 0, 41, 0, 0], "children_right": [32, 17, 10, 7, 6, 0, 0, 9, 0, 0, 14, 13, 0, 0, 16, 0, 0, 25, 22, 21, 0, 0, 24, 0, 0, 29, 28, 0, 0, 31, 0, 0, 40, 35, 0, 39, 38, 0, 0, 0, 42, 0, 0], "feature_importances": [0.002945683123158149, 0.10408769251945062, 0.0, 0.0, 0.046705281404028604, 0.47043813641358495, 0.21132259060237332, 0.03748815697460714, 0.07752093150352135, 0.014845848656003085, 0.03464567880327282]}, {"classes": [0, 1, 2], "feature": [4, 7, 6, 9, 7, 0, 0, 9, 0, 2, 1, 2, 0, 2, 2, 2, 2, 1, 0, 7, 5, 1, 1, 1, 7, 2, 7, 8, 2, 2, 0, 2, 0, 7, 9, 0, 2, 2, 1, 0, 8, 0, 8, 0, 2, 0, 10, 2, 1], "threshold": [51, 49, 22, 145, 21, 0, 0, 193, 0, 0, 17, 20, 0, 0, 4, 0, 0, 10, 0, 63, 42, 0, 0, 0, 49, 21, 35, 39, 0, 0, 1, 0, 0, 35, 117, 0, 0, 25, 0, 0, 50, 2, 41, 0, 0, 0, 97, 0, 0], "children_left": [1, 2, 3, 4, 5, 0, 0, 8, 0, 0, 11, 12, 0, 0, 15, 0, 0, 18, 0, 20, 21, 0, 0, 0, 25, 26, 27, 28, 0, 0, 31, 0, 0, 34, 35, 0, 0, 38, 0, 0, 41, 42, 43, 0, 0, 0, 47, 0, 0], "children_right": [24, 17, 10, 7, 6, 0, 0, 9, 0, 0, 14, 13, 0, 0, 16, 0, 0, 19, 0, 23, 22, 0, 0, 0, 40, 33, 30, 29, 0, 0, 32, 0, 0, 37, 36, 0, 0, 39, 0, 0, 46, 45, 44, 0, 0, 0, 48, 0, 0], "feature_importances": [0.012290720219516929, 0.08011183383743675, 0.03846437682529912, 0.0, 0.21706650825207788, 0.0059349475306384345, 0.08438073727159295, 0.48912569502721015, 0.026669910321212638, 0.04117870039471719, 0.004776570320298289]}, {"classes": [0, 1, 2], "feature": [7, 1, 9, 7, 2, 0, 0, 1, 0, 1, 8, 7, 2, 0, 1, 0, 2, 4, 5, 10, 2, 0, 7, 0, 0, 5, 5, 2, 2, 8, 2, 1, 7, 9, 8, 0, 0, 1, 1, 1, 1, 9, 2, 1, 0, 4, 0, 2, 1], "threshold": [49, 29, 170, 35, 2, 0, 0, 11, 0, 0, 26, 21, 0, 0, 11, 0, 0, 40, 23, 129, 0, 0, 35, 0, 0, 51, 32, 0, 0, 50, 0, 0, 63, 143, 39, 137, 0, 0, 26, 0, 0, 162, 11, 0, 0, 45, 0, 0, 0], "children_left": [1, 2, 3, 4, 5, 0, 0, 8, 0, 0, 11, 12, 0, 0, 15, 0, 0, 18, 19, 20, 0, 0, 23, 0, 0, 26, 27, 0, 0, 30, 0, 0, 33, 34, 35, 36, 0, 0, 39, 0, 0, 42, 43, 0, 0, 46, 0, 0, 0], "children_right": [32, 17, 10, 7, 6, 0, 0, 9, 0, 0, 14, 13, 0, 0, 16, 0, 0, 25, 22, 21, 0, 0, 24, 0, 0, 29, 28, 0, 0, 31, 0, 0, 48, 41, 38, 37, 0, 0, 40, 0, 0, 45, 44, 0, 0, 47, 0, 0, 0], "feature_importances": [0.0040783315410623765, 0.21990306876060722, 0.018283467134202112, 0.0, 0.08658658082885348, 0.05472745028674562, 0.0, 0.5071250349601817, 0.03558938190546052, 0.05959275119296228, 0.014113933389924635]}, {"classes": [0, 1, 2], "feature": [8, 1, 6, 7, 10, 0, 0, 2, 0, 0, 4, 2, 2, 0, 2, 10, 5, 4, 0, 2, 6, 0, 2, 5, 6, 0, 2, 1, 0, 0, 9, 10, 2, 1, 5, 6, 1, 1, 0, 2, 1], "threshold": [55, 29, 67, 35, 139, 0, 0, 4, 0, 0, 63, 12, 0, 0, 0, 128, 32, 28, 0, 0, 52, 0, 0, 23, 7, 0, 0, 36, 0, 0, 142, 64, 0, 0, 51, 52, 17, 0, 0, 0, 0], "children_left": [1, 2, 3, 4, 5, 0, 0, 8, 0, 0, 11, 12, 0, 0, 0, 16, 17, 18, 0, 0, 21, 0, 0, 24, 25, 0, 0, 28, 0, 0, 31, 32, 0, 0, 35, 36, 37, 0, 0, 0, 0], "children_right": [30, 15, 10, 7, 6, 0, 0, 9, 0, 0, 14, 13, 0, 0, 0, 23, 20, 19, 0, 0, 22, 0, 0, 27, 26, 0, 0, 29, 0, 0, 34, 33, 0, 0, 40, 39, 38, 0, 0, 0, 0], "feature_importances": [0.0, 0.17222574696553117, 0.01832729518570617, 0.0, 0.016782701140248518, 0.06856190771377582, 0.1260318907754286, 0.04588161829235107, 0.45692471782039534, 0.025375103270144025, 0.06988901883641926]}, {"classes": [0, 1, 2], "feature": [7, 4, 4, 5, 1, 0, 2, 0, 0, 0, 9, 8, 0, 1, 2, 0, 2, 1, 5, 5, 2, 2, 8, 0, 2, 9, 8, 0, 2, 0, 2, 0, 7, 10, 0, 9, 0, 2, 1, 1, 1], "threshold": [49, 51, 28, 23, 47, 0, 0, 2, 0, 0, 158, 41, 0, 0, 6, 0, 0, 29, 23, 13, 0, 0, 51, 0, 0, 154, 26, 0, 0, 37, 0, 0, 63, 180, 67, 148, 0, 0, 0, 0, 0], "children_left": [1, 2, 3, 4, 5, 0, 0, 8, 0, 0, 11, 12, 0, 0, 15, 0, 0, 18, 19, 20, 0, 0, 23, 0, 0, 26, 27, 0, 0, 30, 0, 0, 33, 34, 35, 36, 0, 0, 0, 0, 0], "children_right": [32, 17, 10, 7, 6, 0, 0, 9, 0, 0, 14, 13, 0, 0, 16, 0, 0, 25, 22, 21, 0, 0, 24, 0, 0, 29, 28, 0, 0, 31, 0, 0, 40, 39, 38, 37, 0, 0, 0, 0, 0], "feature_importances": [0.03262728399191064, 0.04213312651003504, 0.01566090746661532, 0.0, 0.347431533561254, 0.03421019718801829, 0.0, 0.4342603432058015, 0.035374255193479295, 0.0381085724928392, 0.020193780390046802]}, {"classes": [0, 1, 2], "feature": [7, 4, 5, 9, 6, 0, 0, 10, 0, 2, 10, 3, 0, 0, 3, 0, 1, 4, 8, 9, 0, 2, 10, 0, 1, 9, 7, 2, 2, 4, 2, 2, 2, 9, 1, 6, 2, 1, 0, 2, 2, 9, 1, 1, 0, 2, 5, 5, 1, 1, 1], "threshold": [49, 40, 23, 155, 22, 0, 0, 119, 0, 0, 181, 127, 0, 0, 127, 0, 0, 51, 51, 169, 0, 0, 168, 0, 0, 141, 35, 0, 0, 75, 0, 0, 12, 117, 0, 52, 3, 0, 0, 0, 16, 144, 0, 31, 0, 0, 51, 42, 0, 0, 0], "children_left": [1, 2, 3, 4, 5, 0, 0, 8, 0, 0, 11, 12, 0, 0, 15, 0, 0, 18, 19, 20, 0, 0, 23, 0, 0, 26, 27, 0, 0, 30, 0, 0, 33, 34, 0, 36, 37, 0, 0, 0, 41, 42, 0, 44, 0, 0, 47, 48, 0, 0, 0], "children_right": [32, 17, 10, 7, 6, 0, 0, 9, 0, 0, 14, 13, 0, 0, 16, 0, 0, 25, 22, 21, 0, 0, 24, 0, 0, 29, 28, 0, 0, 31, 0, 0, 40, 35, 0, 39, 38, 0, 0, 0, 46, 43, 0, 45, 0, 0, 50, 49, 0, 0, 0], "feature_importances": [0.0, 0.003049354065295908, 0.019413619036186856, 0.034200786204679624, 0.2809477059508032, 0.03620055091721416, 0.03212064778863331, 0.42838733931259315, 0.014556907877024697, 0.11366206656810711, 0.03746102227946208]}, {"classes": [0, 1, 2], "feature": [9, 7, 1, 7, 0, 0, 2, 8, 0, 1, 9, 2, 2, 1, 5, 0, 0, 5, 9, 1, 1, 0, 1, 2, 0, 1, 5, 2, 8, 8, 2, 0, 4, 1, 0, 6, 9, 0, 2, 3, 2, 2, 1], "threshold": [112, 49, 35, 21, 29, 0, 0, 35, 0, 0, 103, 19, 0, 0, 23, 0, 0, 42, 55, 0, 64, 0, 0, 5, 0, 0, 61, 7, 31, 4, 0, 0, 28, 0, 0, 37, 196, 0, 0, 127, 0, 0, 0], "children_left": [1, 2, 3, 4, 5, 0, 0, 8, 0, 0, 11, 12, 0, 0, 15, 0, 0, 18, 19, 0, 21, 0, 0, 24, 0, 0, 27, 28, 29, 30, 0, 0, 33, 0, 0, 36, 37, 0, 0, 40, 0, 0, 0], "children_right": [26, 17, 10, 7, 6, 0, 0, 9, 0, 0, 14, 13, 0, 0, 16, 0, 0, 23, 20, 0, 22, 0, 0, 25, 0, 0, 42, 35, 32, 31, 0, 0, 34, 0, 0, 39, 38, 0, 0, 41, 0, 0, 0], "feature_importances": [0.018054541407827637, 0.034392896704821846, 0.12052693420568344, 0.023100007673360158, 0.015912194107828976, 0.13567047037727212, 0.09087221303160718, 0.23643241147650176, 0.07249863024864556, 0.25253970076645127, 0.0]}, {"classes": [0, 1, 2], "feature": [7, 4, 8, 5, 6, 0, 2, 1, 0, 2, 9, 7, 2, 1, 5, 2, 0, 5, 2, 4, 0, 2, 4, 2, 2, 4, 9, 0, 2, 9, 0, 2, 5, 8, 0, 10, 9, 1, 0, 1, 0, 2, 0, 1, 1], "threshold": [49, 40, 34, 13, 22, 0, 0, 38, 0, 0, 127, 35, 0, 0, 23, 0, 0, 23, 7, 51, 0, 0, 51, 0, 0, 51, 143, 0, 0, 133, 0, 0, 51, 39, 0, 163, 125, 0, 0, 0, 3, 14, 0, 0, 0], "children_left": [1, 2, 3, 4, 5, 0, 0, 8, 0, 0, 11, 12, 0, 0, 15, 0, 0, 18, 19, 20, 0, 0, 23, 0, 0, 26, 27, 0, 0, 30, 0, 0, 33, 34, 0, 36, 37, 0, 0, 0, 41, 42, 0, 0, 0], "children_right": [32, 17, 10, 7, 6, 0, 0, 9, 0, 0, 14, 13, 0, 0, 16, 0, 0, 25, 22, 21, 0, 0, 24, 0, 0, 29, 28, 0, 0, 31, 0, 0, 40, 35, 0, 39, 38, 0, 0, 0, 44, 43, 0, 0, 0], "feature_importances": [0.0011791019499250313, 0.017697838062545615, 0.03196856245075211, 0.0, 0.22643374322600857, 0.11258130628925136, 0.04773401191279659, 0.4267475561146765, 0.048628166220795514, 0.0760258716107293, 0.011003842162519522]}], "pipeline_summary": [{"name": "Q1", "type": "query", "outputs": ["temp.raw"], "use_session_preprocessor": true}, {"name": "Magnitude", "type": "transform", "inputs": {"input_data": "temp.raw", "input_columns": ["AccelerometerY", "AccelerometerZ"]}, "outputs": ["temp.Magnitude0"]}, {"set": [{"inputs": {"columns": ["AccelerometerY", "AccelerometerZ", "Magnitude_ST_0000"]}, "function_name": "25th Percentile"}, {"inputs": {"columns": ["AccelerometerY", "AccelerometerZ", "Magnitude_ST_0000"]}, "function_name": "75th Percentile"}, {"inputs": {"columns": ["AccelerometerY", "AccelerometerZ", "Magnitude_ST_0000"]}, "function_name": "Abs Max Column"}, {"inputs": {"columns": ["AccelerometerY", "AccelerometerZ"], "sample_frequency": 1}, "function_name": "Cross Column Correlation"}, {"inputs": {"columns": ["AccelerometerY", "Magnitude_ST_0000"], "sample_frequency": 1}, "function_name": "Cross Column Correlation"}, {"inputs": {"columns": ["AccelerometerZ", "Magnitude_ST_0000"], "sample_frequency": 1}, "function_name": "Cross Column Correlation"}, {"inputs": {"columns": ["AccelerometerY", "AccelerometerZ"]}, "function_name": "Cross Column Mean Crossing Rate"}, {"inputs": {"columns": ["AccelerometerY", "Magnitude_ST_0000"]}, "function_name": "Cross Column Mean Crossing Rate"}, {"inputs": {"columns": ["AccelerometerZ", "Magnitude_ST_0000"]}, "function_name": "Cross Column Mean Crossing Rate"}, {"inputs": {"offset": 0, "columns": ["AccelerometerY", "AccelerometerZ"]}, "function_name": "Cross Column Mean Crossing with Offset"}, {"inputs": {"offset": 0, "columns": ["AccelerometerY", "Magnitude_ST_0000"]}, "function_name": "Cross Column Mean Crossing with Offset"}, {"inputs": {"offset": 0, "columns": ["AccelerometerZ", "Magnitude_ST_0000"]}, "function_name": "Cross Column Mean Crossing with Offset"}, {"inputs": {"columns": ["AccelerometerY"], "new_length": 32}, "function_name": "Downsample Max With Normaliztion"}, {"inputs": {"columns": ["AccelerometerZ"], "new_length": 32}, "function_name": "Downsample Max With Normaliztion"}, {"inputs": {"columns": ["Magnitude_ST_0000"], "new_length": 32}, "function_name": "Downsample Max With Normaliztion"}, {"inputs": {"columns": ["AccelerometerY", "AccelerometerZ", "Magnitude_ST_0000"]}, "function_name": "Interquartile Range"}, {"inputs": {"columns": ["AccelerometerY", "AccelerometerZ", "Magnitude_ST_0000"]}, "function_name": "Max Column"}, {"inputs": {"columns": ["AccelerometerY", "AccelerometerZ", "Magnitude_ST_0000"]}, "function_name": "Min Column"}, {"inputs": {"columns": ["AccelerometerY", "AccelerometerZ", "Magnitude_ST_0000"], "threshold": 200}, "function_name": "Positive Zero Crossings"}, {"inputs": {"columns": ["AccelerometerY", "AccelerometerZ"], "threshold": 300}, "function_name": "Positive Zero Crossings"}, {"inputs": {"columns": ["AccelerometerY", "AccelerometerZ", "Magnitude_ST_0000"]}, "function_name": "Total Energy"}, {"inputs": {"columns": ["AccelerometerY", "AccelerometerZ"]}, "function_name": "Two Column Mean Difference"}, {"inputs": {"columns": ["AccelerometerY", "Magnitude_ST_0000"]}, "function_name": "Two Column Mean Difference"}, {"inputs": {"columns": ["AccelerometerZ", "Magnitude_ST_0000"]}, "function_name": "Two Column Mean Difference"}, {"inputs": {"columns": ["AccelerometerY", "AccelerometerZ"]}, "function_name": "Two Column Median Difference"}, {"inputs": {"columns": ["AccelerometerY", "Magnitude_ST_0000"]}, "function_name": "Two Column Median Difference"}, {"inputs": {"columns": ["AccelerometerZ", "Magnitude_ST_0000"]}, "function_name": "Two Column Median Difference"}, {"inputs": {"columns": ["AccelerometerY", "AccelerometerZ"]}, "function_name": "Two Column Min Max Difference"}, {"inputs": {"columns": ["AccelerometerY", "Magnitude_ST_0000"]}, "function_name": "Two Column Min Max Difference"}, {"inputs": {"columns": ["AccelerometerZ", "Magnitude_ST_0000"]}, "function_name": "Two Column Min Max Difference"}, {"inputs": {"columns": ["AccelerometerY", "AccelerometerZ"]}, "function_name": "Two Column Peak Location Difference"}, {"inputs": {"columns": ["AccelerometerY", "Magnitude_ST_0000"]}, "function_name": "Two Column Peak Location Difference"}, {"inputs": {"columns": ["AccelerometerZ", "Magnitude_ST_0000"]}, "function_name": "Two Column Peak Location Difference"}, {"inputs": {"columns": ["AccelerometerY", "AccelerometerZ"]}, "function_name": "Two Column Peak To Peak Difference"}, {"inputs": {"columns": ["AccelerometerY", "Magnitude_ST_0000"]}, "function_name": "Two Column Peak To Peak Difference"}, {"inputs": {"columns": ["AccelerometerZ", "Magnitude_ST_0000"]}, "function_name": "Two Column Peak To Peak Difference"}], "name": "generator_set", "type": "generatorset", "inputs": {"input_data": "temp.Magnitude0", "group_columns": ["segment_uuid", "Label", "SegmentID"]}, "outputs": ["temp.generator_set0", "temp.features.generator_set0"]}, {"set": [{"inputs": {"threshold": 0.95}, "function_name": "Correlation Threshold"}, {"inputs": {"threshold": 0.15}, "function_name": "Variance Threshold"}, {"inputs": {"feature_number": 5}, "function_name": "t-Test Feature Selector"}], "name": "selector_set", "type": "selectorset", "inputs": {"input_data": "temp.generator_set0", "label_column": "Label", "cost_function": "sum", "feature_table": "temp.features.generator_set0", "remove_columns": [], "number_of_features": 10, "passthrough_columns": ["segment_uuid", "Label", "SegmentID"]}, "outputs": ["temp.selector_set0", "temp.features.selector_set0"], "refinement": {}}, {"name": "Isolation Forest Filtering", "type": "sampler", "inputs": {"input_data": "temp.selector_set0", "label_column": "Label", "assign_unknown": false, "filtering_label": ["key_io", "knocking", "locking", "noise"], "outliers_fraction": 0.05}, "outputs": ["temp.Isolation_Forest_Filtering0", "temp.features.Isolation_Forest_Filtering0"], "feature_table": "temp.features.selector_set0"}, {"name": "Min Max Scale", "type": "transform", "inputs": {"pad": 0, "max_bound": 255, "min_bound": 0, "input_data": "temp.Isolation_Forest_Filtering0", "passthrough_columns": ["segment_uuid", "Label", "SegmentID"], "feature_min_max_defaults": null, "feature_min_max_parameters": {}}, "outputs": ["temp.Min_Max_Scale0", "temp.features.Min_Max_Scale0"], "feature_table": "temp.features.Isolation_Forest_Filtering0"}, {"name": "tvo", "type": "tvo", "outputs": ["temp.tvo0.1.0", "temp.features.tvo0.1.0"], "input_data": "temp.Min_Max_Scale0.data_0.csv.gz", "optimizers": [{"name": "Random Forest", "inputs": {"max_depth": 5, "n_estimators": 25}}], "classifiers": [{"name": "Decision Tree Ensemble", "inputs": {}}], "label_column": "Label", "feature_table": "temp.features.Min_Max_Scale0", "ignore_columns": ["segment_uuid", "SegmentID"], "validation_seed": 0, "validation_methods": [{"name": "Stratified Shuffle Split", "inputs": {"test_size": 0, "number_of_folds": 1, "validation_size": 0.2}}]}], "query_summary": {"columns": "[\"AccelerometerY\", \"AccelerometerZ\"]", "segmenter": {"parent": null, "name": "AutoSegmentation", "function": null, "parameters": {"inputs": {"input_data": "", "first_column_of_interest": "Magnitude_ST_0000", "second_column_of_interest": "Magnitude_ST_0000", "group_columns": [], "max_segment_length": 175, "min_segment_length": 75, "threshold_space_width": 30, "first_vt_threshold": 400.0, "first_threshold_space": "variance", "first_comparison": "max", "second_vt_threshold": 100.0, "second_threshold_space": "variance", "second_comparison": "min", "drop_over": false, "return_segment_index": false, "keep_partial_segment": true}, "type": "segmenter", "name": "General Threshold Segmentation", "uuid": "5d685c61-26d7-4298-b309-615732d7fb62", "outputs": ["temp.Segmenting0"]}, "custom": false, "preprocess": {"0": {"name": "Magnitude", "actual_name": "Magnitude_ST_0000", "params": {"name": "Magnitude", "outputs": ["temp.Preprocess0"], "inputs": {"input_columns": ["AccelerometerY", "AccelerometerZ"], "input_data": "temp.raw"}, "type": "transform", "feature_table": null}}}}, "task_status": "CACHED", "label_column": "Label", "combine_labels": null, "metadata_filter": "", "metadata_columns": "[\"segment_uuid\"]", "eventlabel_filter": null, "eventlabel_columns": null, "summary_statistics": {"samples": {"key_io": 61878, "locking": 46696, "knocking": 29718}, "segments": {"key_io": 757, "locking": 578, "knocking": 276}, "total_segments": 1611}, "capture_configurations": []}, "feature_summary": [{"Feature": "gen_0015_Magnitude_ST_0000SamplingMax09", "Sensors": ["Magnitude_ST_0000"], "Category": "Sampling", "Generator": "Downsample Max With Normaliztion", "LibraryPack": null, "ContextIndex": 85, "EliminatedBy": null, "GeneratorIndex": 14, "GeneratorTrueIndex": 15, "GeneratorFamilyIndex": 9, "GeneratorFamilyFeatures": 32}, {"Feature": "gen_0016_AccelerometerYIQR", "Sensors": ["AccelerometerY"], "Category": "Statistical", "Generator": "Interquartile Range", "LibraryPack": null, "ContextIndex": 108, "EliminatedBy": null, "GeneratorIndex": 15, "GeneratorTrueIndex": 16, "GeneratorFamilyIndex": 0, "GeneratorFamilyFeatures": 1}, {"Feature": "gen_0018_Magnitude_ST_0000IQR", "Sensors": ["Magnitude_ST_0000"], "Category": "Statistical", "Generator": "Interquartile Range", "LibraryPack": null, "ContextIndex": 110, "EliminatedBy": null, "GeneratorIndex": 15, "GeneratorTrueIndex": 18, "GeneratorFamilyIndex": 0, "GeneratorFamilyFeatures": 1}, {"Feature": "gen_0020_AYAZM0_cross_min_col", "Sensors": ["AccelerometerY", "AccelerometerZ", "Magnitude_ST_0000"], "Category": "Column Fusion", "Generator": "Min Column", "LibraryPack": null, "ContextIndex": 112, "EliminatedBy": null, "GeneratorIndex": 17, "GeneratorTrueIndex": 20, "GeneratorFamilyIndex": 0, "GeneratorFamilyFeatures": 1}, {"Feature": "gen_0021_AccelerometerYPositiveZeroCrossings", "Sensors": ["AccelerometerY"], "Category": "Statistical", "Generator": "Positive Zero Crossings", "LibraryPack": null, "ContextIndex": 113, "EliminatedBy": null, "GeneratorIndex": 18, "GeneratorTrueIndex": 21, "GeneratorFamilyIndex": 0, "GeneratorFamilyFeatures": 1}, {"Feature": "gen_0022_AccelerometerZPositiveZeroCrossings", "Sensors": ["AccelerometerZ"], "Category": "Statistical", "Generator": "Positive Zero Crossings", "LibraryPack": null, "ContextIndex": 114, "EliminatedBy": null, "GeneratorIndex": 18, "GeneratorTrueIndex": 22, "GeneratorFamilyIndex": 0, "GeneratorFamilyFeatures": 1}, {"Feature": "gen_0024_AccelerometerYPositiveZeroCrossings", "Sensors": ["AccelerometerY"], "Category": "Statistical", "Generator": "Positive Zero Crossings", "LibraryPack": null, "ContextIndex": 116, "EliminatedBy": null, "GeneratorIndex": 19, "GeneratorTrueIndex": 24, "GeneratorFamilyIndex": 0, "GeneratorFamilyFeatures": 1}, {"Feature": "gen_0025_AccelerometerZPositiveZeroCrossings", "Sensors": ["AccelerometerZ"], "Category": "Statistical", "Generator": "Positive Zero Crossings", "LibraryPack": null, "ContextIndex": 117, "EliminatedBy": null, "GeneratorIndex": 19, "GeneratorTrueIndex": 25, "GeneratorFamilyIndex": 0, "GeneratorFamilyFeatures": 1}, {"Feature": "gen_0026_TotEng", "Sensors": ["AccelerometerY", "AccelerometerZ", "Magnitude_ST_0000"], "Category": "Energy", "Generator": "Total Energy", "LibraryPack": null, "ContextIndex": 118, "EliminatedBy": null, "GeneratorIndex": 20, "GeneratorTrueIndex": 26, "GeneratorFamilyIndex": 0, "GeneratorFamilyFeatures": 1}, {"Feature": "gen_0039_AYAZ_cross_p2p_diff", "Sensors": ["AccelerometerY", "AccelerometerZ"], "Category": "Column Fusion", "Generator": "Two Column Peak To Peak Difference", "LibraryPack": null, "ContextIndex": 131, "EliminatedBy": null, "GeneratorIndex": 33, "GeneratorTrueIndex": 39, "GeneratorFamilyIndex": 0, "GeneratorFamilyFeatures": 1}, {"Feature": "gen_0041_AZM0_cross_p2p_diff", "Sensors": ["AccelerometerZ", "Magnitude_ST_0000"], "Category": "Column Fusion", "Generator": "Two Column Peak To Peak Difference", "LibraryPack": null, "ContextIndex": 133, "EliminatedBy": null, "GeneratorIndex": 35, "GeneratorTrueIndex": 41, "GeneratorFamilyIndex": 0, "GeneratorFamilyFeatures": 1}], "transform_summary": [{"step_type": "transform", "function_name": "Min Max Scale", "parameter_name": "feature_min_max_parameters", "parameter_value": {"maximums": {"gen_0026_TotEng": 70136.0, "gen_0016_AccelerometerYIQR": 100.0, "gen_0039_AYAZ_cross_p2p_diff": 1905.0, "gen_0041_AZM0_cross_p2p_diff": 999.0, "gen_0018_Magnitude_ST_0000IQR": 199.5, "gen_0020_AYAZM0_cross_min_col": 2.0, "gen_0015_Magnitude_ST_0000SamplingMax09": 255.00001525878906, "gen_0021_AccelerometerYPositiveZeroCrossings": 22.0, "gen_0022_AccelerometerZPositiveZeroCrossings": 27.0, "gen_0024_AccelerometerYPositiveZeroCrossings": 17.0, "gen_0025_AccelerometerZPositiveZeroCrossings": 18.0}, "minimums": {"gen_0026_TotEng": 1325.0, "gen_0016_AccelerometerYIQR": 4.0, "gen_0039_AYAZ_cross_p2p_diff": -1882.0, "gen_0041_AZM0_cross_p2p_diff": -1328.0, "gen_0018_Magnitude_ST_0000IQR": 2.0, "gen_0020_AYAZM0_cross_min_col": 1.0, "gen_0015_Magnitude_ST_0000SamplingMax09": 0.0, "gen_0021_AccelerometerYPositiveZeroCrossings": 0.0, "gen_0022_AccelerometerZPositiveZeroCrossings": 0.0, "gen_0024_AccelerometerYPositiveZeroCrossings": 0.0, "gen_0025_AccelerometerZPositiveZeroCrossings": 0.0}}}], "sensor_summary": [], "class_map": {"1": "key_io", "2": "knocking", "3": "locking"}, "knowledgepack_description": null, "name": "Q1_rank_1", "knowledgepack_summary": {"sensor_columns": ["AccelerometerY", "AccelerometerZ"], "data_columns_ordered": ["ACCELEROMETERY", "ACCELEROMETERZ", "MAGNITUDE_ST_0000"], "recognition_pipeline": [{"name": "Magnitude", "type": "transform", "inputs": {"input_data": "temp.raw", "input_columns": ["AccelerometerY", "AccelerometerZ"]}, "outputs": ["temp.Magnitude0"]}, {"name": "General Threshold Segmentation", "type": "segmenter", "uuid": "5d685c61-26d7-4298-b309-615732d7fb62", "inputs": {"drop_over": false, "input_data": "temp.Magnitude0", "group_columns": [], "first_comparison": "max", "second_comparison": "min", "first_vt_threshold": 400.0, "max_segment_length": 175, "min_segment_length": 75, "second_vt_threshold": 100.0, "keep_partial_segment": true, "return_segment_index": false, "first_threshold_space": "variance", "threshold_space_width": 30, "second_threshold_space": "variance", "first_column_of_interest": "Magnitude_ST_0000", "second_column_of_interest": "Magnitude_ST_0000"}, "outputs": ["temp.segmenter0"]}, {"set": [{"family": true, "inputs": {"columns": ["Magnitude_ST_0000"], "new_length": 32}, "outputs": [0], "function_name": "Downsample Max With Normaliztion"}, {"family": null, "inputs": {"columns": ["AccelerometerY"]}, "outputs": [0], "function_name": "Interquartile Range"}, {"family": null, "inputs": {"columns": ["Magnitude_ST_0000"]}, "outputs": [0], "function_name": "Interquartile Range"}, {"family": false, "inputs": {"columns": ["AccelerometerY", "AccelerometerZ", "Magnitude_ST_0000"]}, "outputs": [0], "function_name": "Min Column"}, {"family": null, "inputs": {"columns": ["AccelerometerY"], "threshold": 200}, "outputs": [0], "function_name": "Positive Zero Crossings"}, {"family": null, "inputs": {"columns": ["AccelerometerZ"], "threshold": 200}, "outputs": [0], "function_name": "Positive Zero Crossings"}, {"family": null, "inputs": {"columns": ["AccelerometerY"], "threshold": 300}, "outputs": [0], "function_name": "Positive Zero Crossings"}, {"family": null, "inputs": {"columns": ["AccelerometerZ"], "threshold": 300}, "outputs": [0], "function_name": "Positive Zero Crossings"}, {"family": null, "inputs": {"columns": ["AccelerometerY", "AccelerometerZ", "Magnitude_ST_0000"]}, "outputs": [0], "function_name": "Total Energy"}, {"family": false, "inputs": {"columns": ["AccelerometerY", "AccelerometerZ"]}, "outputs": [0], "function_name": "Two Column Peak To Peak Difference"}, {"family": false, "inputs": {"columns": ["AccelerometerZ", "Magnitude_ST_0000"]}, "outputs": [0], "function_name": "Two Column Peak To Peak Difference"}], "name": "generator_set", "type": "generatorset", "inputs": {"input_data": "temp.segmenter0", "group_columns": ["segment_uuid", "Label", "SegmentID"]}, "outputs": ["temp.generator_set0", "temp.features.generator_set0"]}, {"name": "Min Max Scale", "type": "transform", "inputs": {"pad": 0, "max_bound": 255, "min_bound": 0, "input_data": "temp.generator_set0", "passthrough_columns": ["segment_uuid", "Label", "SegmentID"], "feature_min_max_defaults": null, "feature_min_max_parameters": {"maximums": {"gen_0026_TotEng": 70136.0, "gen_0016_AccelerometerYIQR": 100.0, "gen_0039_AYAZ_cross_p2p_diff": 1905.0, "gen_0041_AZM0_cross_p2p_diff": 999.0, "gen_0018_Magnitude_ST_0000IQR": 199.5, "gen_0020_AYAZM0_cross_min_col": 2.0, "gen_0015_Magnitude_ST_0000SamplingMax09": 255.00001525878906, "gen_0021_AccelerometerYPositiveZeroCrossings": 22.0, "gen_0022_AccelerometerZPositiveZeroCrossings": 27.0, "gen_0024_AccelerometerYPositiveZeroCrossings": 17.0, "gen_0025_AccelerometerZPositiveZeroCrossings": 18.0}, "minimums": {"gen_0026_TotEng": 1325.0, "gen_0016_AccelerometerYIQR": 4.0, "gen_0039_AYAZ_cross_p2p_diff": -1882.0, "gen_0041_AZM0_cross_p2p_diff": -1328.0, "gen_0018_Magnitude_ST_0000IQR": 2.0, "gen_0020_AYAZM0_cross_min_col": 1.0, "gen_0015_Magnitude_ST_0000SamplingMax09": 0.0, "gen_0021_AccelerometerYPositiveZeroCrossings": 0.0, "gen_0022_AccelerometerZPositiveZeroCrossings": 0.0, "gen_0024_AccelerometerYPositiveZeroCrossings": 0.0, "gen_0025_AccelerometerZPositiveZeroCrossings": 0.0}}}, "outputs": ["temp.Min_Max_Scale0", "temp.features.Min_Max_Scale0"], "feature_table": "temp.features.generator_set0"}]}}